{"input_dim": 23, "layers": [{"w": [[0.026400145143270493, 0.14542019367218018, -0.7115515470504761, 1.1928905248641968, -1.0585657358169556, 1.9665086269378662, -2.0423715114593506, -1.043900489807129, -0.4465864598751068, 0.35144707560539246, 0.5689018964767456, -0.2319498062133789, 0.34698110818862915, 0.41218146681785583, 0.7067991495132446, -0.20530813932418823, -0.026225589215755463, -0.03121018595993519, 0.640484094619751, -0.1312425434589386, -0.1735692173242569, 0.2477540671825409, 0.10725128650665283], [0.2914614975452423, -0.17477451264858246, 3.3323118686676025, 1.4579600095748901, -0.08059638738632202, 5.020949363708496, 0.04299544170498848, 0.3689436614513397, -0.11377977579832077, 0.8815273642539978, 0.08362056314945221, 0.21682710945606232, 0.11530276387929916, 0.04354812949895859, 0.5068421959877014, -0.41981029510498047, -0.4006929099559784, -0.24938546121120453, -0.2372140884399414, -0.30555596947669983, -0.07372371852397919, -0.34617897868156433, -0.47919124364852905], [0.09824096411466599, -0.12765860557556152, 3.1435599327087402, -1.4283592700958252, -0.01874065026640892, 5.362144947052002, -0.283269464969635, 0.5338349938392639, -0.566291093826294, 0.4010300040245056, 0.4783955216407776, 0.0920686200261116, 0.5473785996437073, -1.2998683452606201, 0.3218938112258911, -0.5009788274765015, -1.2242817878723145, 0.2826204001903534, 0.09730252623558044, 0.33363810181617737, 0.14378231763839722, 0.1382935792207718, 0.08013957738876343], [-0.2017417550086975, 0.49040305614471436, 2.054888963699341, 1.5883864164352417, -0.4309835731983185, 4.941234111785889, -0.20183111727237701, -0.53094083070755, -1.6049377918243408, 0.2779032289981842, 0.9508892297744751, 0.850580096244812, -0.23522518575191498, -0.43555501103401184, -0.9620459079742432, 0.7733288407325745, -0.6270068287849426, 0.3294324576854706, -0.10175290703773499, -0.7484367489814758, -0.06381108611822128, 0.2605949938297272, -0.41571927070617676], [0.11662349849939346, -0.05271636322140694, 0.7834780812263489, 0.15100476145744324, -0.6675679087638855, 2.06239914894104, -1.1227797269821167, -0.1931169033050537, -0.6476141810417175, 0.45023664832115173, 0.5191298723220825, -0.06540501862764359, 0.878896951675415, -0.02761084772646427, -1.0923410654067993, -0.025777099654078484, -1.0230087041854858, -0.4023609459400177, -0.05206959694623947, 0.02584105357527733, -0.9627496004104614, 0.36869728565216064, -0.9225961565971375], [-0.005182303488254547, -0.0764581635594368, 3.381772756576538, 1.4227687120437622, 0.3958759903907776, -5.241239070892334, 0.6459125876426697, -0.9853969812393188, -0.3757860064506531, -0.07812800258398056, -0.012829795479774475, -0.6456125378608704, 0.71939617395401, 0.7059434056282043, 0.0838453471660614, -0.09895490854978561, 0.2682650685310364, -1.4957516193389893, -0.6130861639976501, -0.8730090260505676, 0.1445261538028717, -0.18150389194488525, 0.1340300291776657], [0.0960708037018776, -0.15720511972904205, 2.3107411861419678, 1.9800503253936768, -0.05838894844055176, 2.5458102226257324, 0.29488563537597656, 0.6110742688179016, -1.3636494874954224, 1.351660966873169, -0.7994701266288757, 0.5129129886627197, -0.6061078906059265, 0.26252588629722595, 0.07843567430973053, -0.240510955452919, -0.006063148844987154, 0.14408768713474274, 0.004227620083838701, 0.04580448195338249, 0.20595283806324005, 0.17565569281578064, 0.06649821251630783], [-0.029057862237095833, -0.045305438339710236, -0.22432978451251984, 0.008738000877201557, -0.03128145635128021, -0.13850364089012146, 0.11690700799226761, 0.022709336131811142, -0.15800076723098755, -0.16012707352638245, -0.05269484594464302, 0.026954295113682747, -0.11654864996671677, -0.15846168994903564, -0.11015031486749649, -0.15468057990074158, 0.07436300814151764, 0.10113324970006943, -0.19630387425422668, 0.04842761531472206, 0.10249013453722, 0.03780978545546532, -0.07425712049007416], [-0.2982538640499115, 0.08085253089666367, 5.037632465362549, -0.6256664395332336, 0.3141138255596161, 0.2564152479171753, -1.1108331680297852, 0.4612828195095062, 0.3890646994113922, -0.6399654150009155, -0.7542703151702881, -0.9152849912643433, -1.32320237159729, -0.47321176528930664, 0.21860001981258392, 0.027217620983719826, 0.39626237750053406, 0.3171076476573944, 0.3761986494064331, 0.20945370197296143, 0.2466086894273758, 0.36767736077308655, 0.2035118192434311], [-0.1355947107076645, -0.42330923676490784, 1.9502297639846802, 0.9880544543266296, -0.046223562210798264, 1.4601719379425049, -0.09345299750566483, -0.25815364718437195, 1.0972418785095215, 0.5327264666557312, -1.718168020248413, 0.8187452554702759, 0.5759587287902832, -1.46225905418396, 0.2187705636024475, 0.15685530006885529, -0.4837867021560669, -0.817375898361206, 0.2826504111289978, -0.082590252161026, 0.27043718099594116, 0.344469279050827, -0.698405921459198], [-0.3510984480381012, 0.5727808475494385, -0.43254029750823975, 0.5673273801803589, -0.1428125500679016, -2.103693962097168, -0.8857536911964417, -0.7159851789474487, 0.4854505658149719, 0.08642590045928955, 1.4226502180099487, 0.55672287940979, -0.3908764719963074, -1.640499234199524, -3.2261054515838623, -0.6216307282447815, 0.3955657482147217, -0.5268169045448303, 0.17289651930332184, 0.2104090005159378, 0.46226125955581665, 0.18555137515068054, -0.48002830147743225], [-0.1833159327507019, 0.062030717730522156, -0.6014872193336487, 2.898137331008911, -0.035569339990615845, 3.8601861000061035, -0.24794939160346985, 0.30650821328163147, -0.4236912727355957, 0.4636266827583313, -1.9324302673339844, 0.17248065769672394, 0.626458466053009, 0.5571978092193604, -0.7530007362365723, 0.3862779438495636, -1.0884124040603638, 0.08041062951087952, -0.12148959934711456, 0.45847126841545105, 0.23349066078662872, -1.3127795457839966, 0.3619617819786072], [0.06725047528743744, -0.20120686292648315, -0.8431345820426941, -0.047058574855327606, 0.03719790279865265, 3.3938753604888916, -0.01689273677766323, 1.037185549736023, -3.4052271842956543, 1.451008915901184, 0.5310022830963135, -0.633394718170166, 0.8355045914649963, 0.12944789230823517, -0.04914962127804756, 0.14182524383068085, -0.6262643933296204, -0.0045466236770153046, 0.08412773907184601, 0.06813454627990723, 0.03448670729994774, -0.07517732679843903, 0.06352638453245163], [-0.09985394775867462, 0.45161518454551697, -0.3309933543205261, 2.0542612075805664, -3.2849395275115967, 3.677417516708374, 0.08479683846235275, 0.17232787609100342, -0.11348727345466614, -1.7225552797317505, 0.12635384500026703, 0.8489778637886047, 0.6578758955001831, -0.7560028433799744, 0.21873585879802704, 0.25243523716926575, -0.7136207818984985, 0.13454756140708923, -0.1627310812473297, 0.1817820519208908, 0.3841519057750702, -0.7657602429389954, 0.39926373958587646], [0.01640160009264946, 0.4740842878818512, -0.45993322134017944, 0.6260576248168945, -2.857039213180542, 1.9058657884597778, -1.549494981765747, 0.3477476239204407, -0.7966589331626892, 0.30611830949783325, 0.7400803565979004, 0.6664437651634216, -0.03797948360443115, -1.3301072120666504, -0.49907782673835754, -0.02082126960158348, -0.08217188715934753, -0.029278047382831573, 0.38842907547950745, -1.132147192955017, -0.6512728333473206, -0.4284866154193878, 0.03981858864426613], [-0.2565571963787079, 0.5472228527069092, -0.17494474351406097, 1.6117455959320068, -0.877609133720398, 3.304386615753174, 0.7328983545303345, 0.4066982865333557, 0.47468501329421997, -0.11660296469926834, -0.30247005820274353, -0.015362310223281384, -0.8078771829605103, -1.6552070379257202, -0.03814956918358803, -0.621105432510376, -1.028273582458496, -0.3430749177932739, -0.15597973763942719, -0.10233466327190399, 0.2090688794851303, -0.6652979254722595, 0.17800471186637878], [-0.15027211606502533, 0.04783471301198006, 1.2253323793411255, -0.03472188115119934, -1.146934151649475, 2.5669825077056885, -0.854659378528595, -0.08412351459264755, -0.06045057624578476, -0.9164018630981445, 0.4361150562763214, -0.293056458234787, -0.2751011252403259, 0.4884697496891022, 0.047619689255952835, 1.36257004737854, -0.2114756554365158, 0.15675687789916992, 0.18243195116519928, -0.5292759537696838, -0.9290698170661926, 0.3257870376110077, -0.878822386264801], [-0.08853771537542343, 0.6947643756866455, -0.8265013098716736, 1.2051784992218018, 0.32359281182289124, 5.35526180267334, -1.464064121246338, 0.9743632674217224, -0.8028014302253723, 0.30822181701660156, 0.7237456440925598, 0.21303315460681915, 0.45006078481674194, 0.20812341570854187, -0.4666651487350464, -0.8686459064483643, -0.6568891406059265, -0.7131180763244629, -0.41912323236465454, -0.5403245091438293, 0.38018420338630676, 0.22655519843101501, 0.14360184967517853], [0.05761396884918213, -0.15694236755371094, 3.6060497760772705, 2.164543628692627, 0.4272669851779938, 8.13725471496582, 0.6469507217407227, -0.5738705992698669, -0.31311851739883423, -0.06776835024356842, 0.031354498118162155, -0.230213463306427, -0.0724947601556778, -0.39296722412109375, -0.20062114298343658, 0.024692073464393616, -0.2995181381702423, 0.14913266897201538, 0.2975226938724518, 0.10023100674152374, -0.5707331895828247, 0.23231935501098633, -0.0016589949373155832], [0.09772150963544846, -0.47312864661216736, 2.5320982933044434, -0.3074703812599182, 0.3036588430404663, 5.4193572998046875, -0.7057743668556213, 0.9896590709686279, -0.41985732316970825, 0.4251888692378998, 0.5263164639472961, 0.15773528814315796, -0.4081949293613434, 0.5178648829460144, -0.7707459926605225, 0.4834061563014984, -0.6309167742729187, -0.5138875842094421, 0.30114153027534485, 0.0721202865242958, -0.2518865466117859, -1.1277436017990112, -0.02313680574297905], [-0.2653437554836273, -0.08857797086238861, 1.9464300870895386, 0.6110364198684692, 0.2176772952079773, -0.6219131350517273, -0.3742828369140625, -0.23940269649028778, -0.19370457530021667, -0.6816828846931458, -0.22763139009475708, 0.9339542388916016, 0.3375285267829895, -2.1415255069732666, 0.11378657072782516, 0.14789091050624847, -0.3060644865036011, -0.2687320411205292, 0.010469472035765648, -0.2846153974533081, 0.14239560067653656, -0.36687180399894714, -0.41655415296554565], [-0.0622122585773468, -0.32006049156188965, -0.19281823933124542, 0.36124807596206665, -0.14802046120166779, 1.3111988306045532, 0.12188359349966049, 0.4969063699245453, 0.23517455160617828, -0.1050620824098587, -0.08090057224035263, -0.27246326208114624, -1.1997132301330566, -0.02314239926636219, 0.1296810805797577, -0.24241089820861816, 0.1579006165266037, 0.17653971910476685, -0.4083003103733063, -0.05804938077926636, -0.1417086124420166, 0.10633823275566101, -0.09198172390460968], [-0.049113769084215164, -0.18260899186134338, -6.588282585144043, -0.891958475112915, -0.1622627079486847, -2.228102684020996, 0.032727327197790146, -0.14304420351982117, 0.31907400488853455, 0.1380043923854828, -0.13177888095378876, 0.17804856598377228, -0.13190394639968872, -0.11967930197715759, -0.10105426609516144, 0.6646291017532349, 0.39392024278640747, 0.23961018025875092, 0.20253664255142212, 0.09453839063644409, 0.12689651548862457, 0.1303686499595642, 0.21199877560138702], [-0.0032512678299099207, 0.10990938544273376, -2.1263749599456787, 1.1980624198913574, -1.8635133504867554, 1.3368360996246338, -1.2398685216903687, -1.5250229835510254, -0.59959876537323, 0.2134203463792801, 0.582852840423584, 0.15088708698749542, 0.390392005443573, -0.32431119680404663, 0.6290522217750549, 0.42789560556411743, -0.6228499412536621, 0.03687109053134918, -0.14241142570972443, 0.43645232915878296, 0.13094961643218994, -0.591760516166687, 0.4011900722980499], [-0.12930846214294434, 0.04285807907581329, 0.7179509997367859, -0.10775773227214813, -0.3963262140750885, -0.3660649061203003, -0.03923039883375168, 0.28666767477989197, 0.24898478388786316, 0.4067000150680542, -0.36065152287483215, -0.5410844087600708, 0.07436206191778183, -0.13129937648773193, -0.5210691690444946, -0.4799022674560547, -0.4071683883666992, -0.041298333555459976, 0.011027337051928043, 0.008574905805289745, -0.11472540348768234, 0.08382579684257507, -0.31195950508117676], [-0.01975068263709545, -0.21318142116069794, 1.644889235496521, -0.6352424025535583, -0.24280166625976562, 3.390937089920044, -2.3187246322631836, 1.2607868909835815, 0.7869880199432373, 0.07057438790798187, -0.08648740500211716, -0.13099323213100433, 0.10403980314731598, 0.3548229932785034, -0.07976076006889343, 0.23172475397586823, -0.4422312080860138, -0.04044146463274956, 0.05690428614616394, 0.1662227362394333, 0.13367405533790588, 0.1414734423160553, 0.15997067093849182], [0.07169614732265472, 0.10449501127004623, -6.002583980560303, -0.33937814831733704, -0.01116347499191761, -1.2150424718856812, -0.05168822035193443, -0.15632794797420502, -0.1424536556005478, -0.12319256365299225, -0.09246981889009476, 0.06386159360408783, -0.11533323675394058, -0.10756218433380127, -0.16028110682964325, 0.26011335849761963, 0.31073617935180664, 0.24651433527469635, 0.24791483581066132, 0.2709701359272003, 0.32325923442840576, 0.31982526183128357, 0.22798539698123932], [0.23301228880882263, -0.9387213587760925, 0.7776128053665161, 0.2431063950061798, 0.06645236164331436, 2.5801429748535156, 0.5385435819625854, -4.487444877624512, 1.4587527513504028, -0.017982078716158867, 0.24192263185977936, 0.2025216668844223, 0.30756238102912903, 0.15997503697872162, 0.24397829174995422, 0.20432570576667786, -0.4305313527584076, 0.3403370976448059, 0.4472144842147827, -0.2563779354095459, 0.1536112278699875, 0.42997562885284424, 0.4462527632713318], [-0.2251114547252655, 0.04329424351453781, 2.7135250568389893, -2.2059361934661865, 0.04507295414805412, 10.220484733581543, 0.36951151490211487, -0.4427940547466278, 0.20941807329654694, 0.05856410786509514, -0.2330063432455063, 0.30405110120773315, -0.2890872359275818, 0.2731740176677704, -0.5373174548149109, 0.46565812826156616, -0.7084006071090698, 0.4170357286930084, 0.11564410477876663, 0.07033220678567886, 0.1691538393497467, -0.5278694033622742, 0.22880710661411285], [0.03621167689561844, 0.05176777392625809, -5.393108367919922, 0.5350548624992371, 0.023565096780657768, -1.207897424697876, -0.2950495779514313, -0.6128401756286621, -0.0843585729598999, -0.4144759178161621, 0.14976730942726135, 0.018053201958537102, -0.42804038524627686, -0.4671698212623596, 1.138844609260559, 0.7027977705001831, -0.6640312671661377, 0.29548484086990356, -0.08415155857801437, 0.054822489619255066, -0.6848449110984802, -0.020370272919535637, -0.6324915885925293], [0.036546964198350906, 0.46275123953819275, -1.6858747005462646, 2.072234869003296, -0.7820614576339722, 4.528996467590332, -1.4626444578170776, 0.4926862120628357, 0.1802464723587036, 0.8170496225357056, 0.5954515337944031, 0.45618683099746704, -0.8828099966049194, -0.5585420727729797, 0.16424883902072906, -0.30653414130210876, -0.17808829247951508, 0.23112429678440094, -0.05158254876732826, 0.277143657207489, -0.2370588332414627, 0.17020048201084137, 0.1559511423110962], [-0.1167764887213707, 0.22153864800930023, 2.163036823272705, 1.5534930229187012, -0.057595446705818176, 1.7135276794433594, -0.15281789004802704, 0.18922318518161774, 0.7744615077972412, 0.8818374872207642, -0.15978123247623444, -0.39455828070640564, 0.7818934917449951, 0.6699968576431274, -2.049354076385498, -0.3050311207771301, 0.06902127712965012, -0.5633654594421387, -0.0280502550303936, 0.218964084982872, 0.27001091837882996, 0.16812489926815033, -0.09230125695466995], [-0.08990325778722763, -0.30476275086402893, 0.6411382555961609, 0.21364979445934296, 0.06936807930469513, 2.065732955932617, -0.28230080008506775, -0.13899673521518707, -0.07794443517923355, 0.26101207733154297, 1.4227389097213745, -2.0861809253692627, 0.010347938165068626, 0.7117841243743896, 0.001338191912509501, 0.37407442927360535, -0.16539424657821655, 0.00227909698151052, -0.12592917680740356, 0.40642935037612915, 0.40580493211746216, -0.5101376175880432, 0.31783798336982727], [0.12441028654575348, 0.2786836624145508, 0.1216651052236557, 1.2088714838027954, 0.2188069075345993, 0.8633649349212646, -0.3641104996204376, -0.043251994997262955, -0.7683346271514893, 0.9435146450996399, 1.141467809677124, -0.4143037497997284, 0.15660272538661957, -1.724546194076538, -1.334670901298523, 0.3310199975967407, -0.37720638513565063, -0.6226357817649841, 0.15177807211875916, 0.3621198832988739, -0.5135983824729919, -0.23891058564186096, 0.20629408955574036], [0.01873783953487873, 0.26528242230415344, 2.393282175064087, -0.043547965586185455, 0.24012023210525513, 4.136454105377197, 0.050374239683151245, 0.5056962370872498, -0.8509548902511597, 0.557110071182251, 0.4172598719596863, 0.03352214768528938, 0.14751344919204712, -2.2266955375671387, 0.37807169556617737, -0.038026224821805954, 0.11908875405788422, 0.15934865176677704, -0.9186090230941772, -0.5571517944335938, 0.27168965339660645, 0.35441774129867554, -0.34790468215942383], [-0.3212473392486572, -0.04314595088362694, 1.1559957265853882, 1.2975105047225952, 0.08467376232147217, 3.8510212898254395, -0.010024798102676868, 0.1953696757555008, 0.017964472994208336, 0.22202622890472412, -1.7593646049499512, -0.19509154558181763, 0.17154645919799805, -0.34172549843788147, -0.07876873016357422, 0.02052244171500206, -0.4085862338542938, -0.154501810669899, -0.06332097947597504, -0.05226362869143486, -0.10253088921308517, -0.21188578009605408, -0.17048834264278412], [0.12296675890684128, 0.25317782163619995, 2.6844968795776367, 1.3230783939361572, -0.3645113408565521, -0.7358677387237549, 0.013513186946511269, -0.3869451880455017, 0.24426977336406708, 0.7095851302146912, 0.7408431172370911, -0.3418824076652527, 0.4583459794521332, -1.5104845762252808, -0.49813640117645264, -0.29950693249702454, -0.30701151490211487, 0.3545757532119751, 0.1615275740623474, -0.8818817138671875, -0.42194122076034546, 0.06017113849520683, -0.05052025988698006], [-0.05149368196725845, -0.5419339537620544, 4.050842761993408, -0.6360355019569397, 0.7208976745605469, 2.0101242065429688, 0.2673236131668091, 0.21792945265769958, -0.07580651342868805, 0.10861248522996902, -0.5052153468132019, 0.5716671943664551, -0.2468094676733017, -0.5713818073272705, 0.65705406665802, 0.46864229440689087, -0.13648056983947754, -0.1568295806646347, -0.10572004318237305, -0.25021055340766907, -0.07340110093355179, -0.05897653102874756, 0.09184452891349792], [-0.12878377735614777, -0.047518495470285416, 3.961317539215088, 2.760526418685913, 0.26335591077804565, -1.6075928211212158, -0.4084242582321167, -1.1017955541610718, -0.19866928458213806, -0.22926728427410126, 0.21873289346694946, 0.12479302287101746, 0.08923149853944778, -0.026947664096951485, -0.04368564113974571, 0.8429492712020874, 0.12122705578804016, 0.13050074875354767, -0.04036543518304825, -0.1761368364095688, -0.48803678154945374, 0.04379100725054741, 0.3149459958076477], [0.04990840703248978, 0.04727385565638542, -2.2353568077087402, 0.1303188055753708, -0.6509121060371399, 1.1857997179031372, -0.14660193026065826, -0.6317636966705322, 0.7768793702125549, 0.15484324097633362, 0.09797564893960953, -0.08289740234613419, 0.015593000687658787, -0.9915242791175842, 0.729714572429657, 1.2260218858718872, 0.5128458142280579, -0.2564893662929535, -0.41246703267097473, -0.4455575942993164, -0.8003103137016296, -0.6190058588981628, -0.6464099287986755], [0.11173602193593979, 0.0410875640809536, -5.369179725646973, -0.49973049759864807, 1.4265257120132446, 0.056408561766147614, 0.4088134765625, 0.2302643209695816, 0.30237895250320435, 0.30860257148742676, 0.38003018498420715, 0.18419606983661652, 0.3770788311958313, 0.2983137369155884, 0.31677496433258057, 0.16958223283290863, 0.3191559314727783, 0.27303653955459595, 0.32697170972824097, 0.29332324862480164, 0.31422674655914307, 0.3441839814186096, 0.3362319767475128], [0.04480711370706558, -0.10785731673240662, 1.4493920803070068, 0.7464208006858826, -0.3455515503883362, -1.4657577276229858, 0.27520880103111267, -0.3817766010761261, -0.08492854237556458, 0.22394713759422302, 0.3003191649913788, 0.5047269463539124, -2.5605010986328125, 0.6319594979286194, 0.2694380581378937, 0.9822165966033936, 0.08363562077283859, 0.15809762477874756, -0.6716897487640381, -0.9323902726173401, 0.2920507490634918, 0.13444674015045166, 0.1497991681098938], [0.032792411744594574, -0.20642034709453583, 0.5766960382461548, -0.39527103304862976, -1.9498111009597778, -1.1510918140411377, -0.9337363839149475, -0.44617635011672974, 0.4508804976940155, 0.17692874372005463, 0.659956157207489, 0.8403565883636475, 0.28366073966026306, 0.7397343516349792, -0.4274510443210602, -1.752801537513733, 0.02341582626104355, -0.8011044859886169, -0.9649826884269714, 0.3642939329147339, 0.015241829678416252, -0.02551032230257988, 0.24477456510066986], [-0.04307655617594719, -0.017443720251321793, 0.09385458379983902, -0.03504495695233345, -0.17510612308979034, 0.16683988273143768, -0.10494832694530487, -0.022907081991434097, 0.01966840773820877, -0.012531060725450516, -0.19614657759666443, 0.09566640108823776, -0.09471381455659866, -0.108147993683815, 0.04981731250882149, -0.1088157519698143, -0.09636694192886353, -0.07025891542434692, -0.07833418995141983, -0.08708342909812927, -0.05623338744044304, 0.0541878417134285, -0.1687335968017578], [0.006527051795274019, -0.07314950227737427, 0.8278124928474426, -0.014675007201731205, 0.10750247538089752, 0.4855484366416931, -0.4848783612251282, -0.3056730031967163, -1.9481643438339233, -0.10397936403751373, -0.40362006425857544, 0.4563263952732086, 0.8600628972053528, 0.8995320796966553, 0.8974570035934448, 0.333413302898407, -0.11387097835540771, 0.15656517446041107, 0.06012453883886337, -0.5473012328147888, -0.04785013571381569, -0.43221381306648254, -0.149685800075531], [0.25372254848480225, 0.03399033844470978, -6.442865371704102, 0.0799405500292778, 0.11978223919868469, 0.33758798241615295, 0.2198614478111267, 0.09625975042581558, 0.06120436266064644, -0.0508570596575737, -0.18473252654075623, -0.0039027268067002296, 0.06218646094202995, 0.18569940328598022, 0.2083158642053604, 0.1401951164007187, 0.03781631588935852, 0.06449645757675171, 0.13875822722911835, 0.014305992051959038, 0.11204316467046738, 0.059759922325611115, 0.06970356404781342], [-1.1161699295043945, 0.7573347091674805, 6.153344631195068, -1.2303519248962402, -0.10134844481945038, -2.33079195022583, -1.0488792657852173, 0.5348029136657715, -2.858450412750244, -1.9710954427719116, -0.8663877844810486, -3.1346352100372314, -2.5418341159820557, -3.563598155975342, 0.3007550537586212, -1.6460456848144531, -0.2162466049194336, 0.6024610996246338, -0.29927754402160645, 0.638779878616333, -0.3871006965637207, 0.4600684940814972, 0.3035070300102234], [0.0015164666110649705, -0.08070894330739975, -3.7314796447753906, -1.057084321975708, -0.002925794804468751, -0.2676437795162201, 0.02410927414894104, -0.06879034638404846, 0.052960194647312164, -0.0745258703827858, 0.8295156955718994, 0.16723178327083588, 0.15676234662532806, 0.5714342594146729, -1.0146483182907104, -0.06349066644906998, -0.4761798083782196, -0.38445931673049927, 0.20189589262008667, 0.324754923582077, 0.09732449799776077, -0.356670081615448, 0.16635891795158386], [-0.060709841549396515, -0.23320144414901733, 2.5254452228546143, 0.7659134268760681, 0.08971253782510757, -4.470556259155273, -0.05982159450650215, -1.7311692237854004, -0.0889924019575119, 0.13534203171730042, 0.20034068822860718, 0.9510819911956787, 0.050179749727249146, 0.2593086361885071, 0.6001788973808289, -0.22377578914165497, 0.12636151909828186, -0.8274943232536316, 0.14094312489032745, -0.15396824479103088, 0.19777163863182068, 0.32497701048851013, -0.44292959570884705], [0.0972292572259903, 0.5308005213737488, 2.7945265769958496, 0.2258390486240387, 0.6582174301147461, -6.737124443054199, 0.20142339169979095, -0.18737143278121948, -0.7698041200637817, -0.3799002766609192, 0.5204750895500183, -0.36077043414115906, -0.7459998726844788, -0.36292764544487, 0.45916852355003357, 0.21917511522769928, -0.48315706849098206, 0.2881206274032593, -0.5219571590423584, -0.4149370491504669, -0.6680315732955933, -0.6018742918968201, 0.18845021724700928], [-0.37676501274108887, 0.21084938943386078, 3.455916404724121, 2.5300660133361816, 0.024562960490584373, 5.964931011199951, 0.218345507979393, 0.5313130617141724, -0.4524710178375244, -0.3106524348258972, -0.5623525977134705, 0.31778109073638916, 0.12443457543849945, -0.45582816004753113, -0.1635614037513733, -0.5109058618545532, 0.03530007228255272, 0.20113644003868103, -0.40547803044319153, 0.17220887541770935, 0.09674099087715149, -0.20612719655036926, -0.01862010359764099], [-0.11422475427389145, 0.37210166454315186, 3.783541679382324, -0.05731635168194771, -1.6321430206298828, -1.3682447671890259, 0.3314612805843353, 0.06058160215616226, -0.7246075868606567, -1.3550646305084229, 0.699937641620636, -0.06172444671392441, 0.6042656898498535, -0.4879225790500641, -0.3383851945400238, -3.6090152263641357, 0.24822625517845154, 0.05012085288763046, 0.20695103704929352, 0.5431885123252869, -0.705008327960968, 0.24168366193771362, -0.0015812610508874059], [-0.2339269518852234, 0.1684226542711258, 4.353336811065674, -0.211587592959404, -0.5862385630607605, -0.3123977780342102, -0.35923048853874207, 0.386527419090271, -0.5767945647239685, -0.9207373857498169, 0.09231046587228775, 0.16468779742717743, 0.38381510972976685, -0.05739780515432358, 0.4739289879798889, -0.7837459444999695, 0.42532509565353394, 0.3442031145095825, -0.11688628792762756, 0.18421678245067596, 0.3715013265609741, 0.008243384771049023, 0.3064068853855133], [-0.07912391424179077, 0.3207132816314697, 3.368098258972168, 2.519308090209961, -0.793215274810791, 3.3022687435150146, -0.2804361879825592, -0.1747816652059555, -0.013583210296928883, -0.0749431625008583, -0.17890040576457977, 0.19071726500988007, -1.6671881675720215, 0.35435283184051514, 0.5388669371604919, 0.9090585708618164, 0.016860047355294228, -0.19953472912311554, -0.5400834083557129, 0.36804139614105225, -0.7395528554916382, -0.4674304127693176, -0.1009390577673912], [0.22757424414157867, 0.14639928936958313, 0.1887916773557663, -0.5750572085380554, 0.9936971068382263, -1.4017093181610107, 0.19989918172359467, -0.8140753507614136, -0.40768927335739136, -0.5088844299316406, -1.0688637495040894, 0.4770941734313965, 0.636489748954773, 1.131800889968872, 0.25870299339294434, 0.537589967250824, -0.6111547946929932, 0.18681325018405914, -0.5267910361289978, -0.29983940720558167, -0.05284598842263222, 0.44323208928108215, -0.43115416169166565], [-0.15220187604427338, 0.027686407789587975, 3.403754234313965, 1.0011541843414307, -0.20714975893497467, -0.1456374228000641, 0.27902358770370483, -2.1758790016174316, -1.0181001424789429, -1.7672326564788818, 0.14046625792980194, 0.9462217688560486, 0.6858640909194946, 0.7065202593803406, -1.434126615524292, -1.02275812625885, -0.6657088398933411, -0.451823890209198, -0.4957607686519623, 0.3138136863708496, -0.601296067237854, 0.4060034155845642, 0.42919594049453735], [-0.0006893479148857296, 0.06303595006465912, 2.7079129219055176, 1.2320669889450073, 0.24631305038928986, 5.394480228424072, 0.11602959036827087, 0.28141897916793823, -0.38140836358070374, -0.06038956716656685, 0.006804537493735552, -0.22652484476566315, -0.19021564722061157, 0.2462933510541916, -0.2445688396692276, -0.04746729135513306, 0.04333082586526871, -0.904179573059082, 0.1572187840938568, -0.1133701354265213, 0.212320476770401, -0.6878814101219177, -0.8339256048202515], [0.10780810564756393, -0.34077951312065125, 2.5389914512634277, -0.7955610752105713, -1.2539764642715454, -3.7385168075561523, 0.4902186989784241, -0.6917770504951477, 0.4942731559276581, -0.1601143479347229, 0.18708525598049164, 0.060235098004341125, -0.21471548080444336, -0.8181664943695068, 0.019419332966208458, -1.3892003297805786, -0.30549249053001404, -0.4589940905570984, 0.32241424918174744, -0.338183730840683, -0.10807530581951141, -0.19245924055576324, 0.5730156302452087], [-0.11455275863409042, 0.23496007919311523, 6.397994041442871, -0.09063943475484848, 0.04267529398202896, -1.903551697731018, 0.00981871597468853, -0.040960583835840225, 0.07661700993776321, 0.06921691447496414, -0.006466466002166271, -0.29569563269615173, -0.14979800581932068, 0.29042360186576843, -0.04512731730937958, -0.09184744209051132, 0.07512956112623215, 0.10115768015384674, -0.03702518343925476, 0.014508065767586231, 0.04097418859601021, 0.006214597262442112, 0.07843773066997528], [0.11701776832342148, 0.2521290183067322, 1.2779406309127808, 0.48800966143608093, -0.016337014734745026, 0.9615880250930786, 0.1503283679485321, 0.024813488125801086, -3.139514446258545, 1.0627212524414062, 0.360219806432724, 0.18971490859985352, 0.4759175181388855, -0.4220537841320038, -0.277890145778656, 0.1407390981912613, 0.6462907791137695, -0.054478615522384644, -0.5072590708732605, -0.5175391435623169, -0.5088546872138977, -0.6925144791603088, -0.14735077321529388], [0.14471563696861267, -0.47417980432510376, 3.988710403442383, 0.4705348014831543, 0.15703560411930084, 9.587252616882324, -0.10410121828317642, 0.43836894631385803, 0.06288494914770126, -0.16204345226287842, -0.3208960294723511, -0.1574237197637558, 0.2891468405723572, -0.13394202291965485, -0.24847306311130524, -0.001809742534533143, -0.18910640478134155, 0.15637779235839844, -0.15975584089756012, -0.48134830594062805, 0.17260122299194336, 0.18526355922222137, -0.04688781499862671], [0.05069814994931221, -0.3037259578704834, 1.5029981136322021, 1.4393107891082764, -0.002578849671408534, 2.6862542629241943, -0.07499493658542633, 0.03660383075475693, -0.21130059659481049, 0.05701868608593941, 0.026230299845337868, 0.3199714422225952, 0.11137256026268005, 0.8066040277481079, -2.2169458866119385, 0.9670940637588501, 0.33481448888778687, 0.10450860857963562, -0.27494940161705017, 0.0810387134552002, -0.30277904868125916, -0.21965742111206055, -0.013463428243994713], [0.25326618552207947, -0.6456197500228882, 2.0536797046661377, -1.0270373821258545, 0.1439363956451416, 2.2239668369293213, 0.6551274657249451, 0.33568277955055237, 0.15720538794994354, 0.2268933802843094, 0.4569433033466339, 0.36838051676750183, 0.34917357563972473, -0.08786528557538986, 0.1206476092338562, 0.35468050837516785, -0.26223593950271606, -0.395757794380188, -0.5683385729789734, -0.4536588191986084, -0.41889944672584534, -0.5181289315223694, -0.3913124203681946], [-0.02678464725613594, -0.2344040870666504, -6.9570512771606445, -0.7695177793502808, -0.10201502591371536, -1.907038927078247, -0.06740687042474747, 0.31510260701179504, 0.04719580337405205, 0.12581630051136017, -0.006731783505529165, 0.016017284244298935, 0.06653917580842972, 0.11030592024326324, -0.0441201813519001, -0.17343907058238983, 0.19213882088661194, 0.2662886381149292, 0.23566687107086182, 0.26136550307273865, 0.234996497631073, 0.2762254476547241, 0.2701409161090851], [-0.008321154862642288, 0.5082296133041382, 1.890538215637207, 0.25913581252098083, -0.8958972096443176, 0.19584329426288605, 0.5385944843292236, 0.7882886528968811, -0.04139063507318497, -1.101170539855957, -1.3916712999343872, -1.2367335557937622, 0.2070518136024475, -0.28069302439689636, 0.5750352144241333, 0.5869879126548767, -0.048584651201963425, -0.9189121127128601, 0.439876526594162, -0.206293523311615, 0.005910164210945368, -0.24055901169776917, 0.12648048996925354], [-0.12958237528800964, -0.1277591586112976, 1.087007761001587, 2.0464277267456055, -1.2271411418914795, 4.777043342590332, -0.10695391148328781, -0.09840858727693558, -0.09659942984580994, 0.4144781827926636, -0.6097544431686401, 0.46396663784980774, 0.20009323954582214, 0.6300579309463501, 0.9079484939575195, -1.4941178560256958, -0.05977316573262215, 0.053652625530958176, 0.05175258219242096, 0.2080778032541275, 0.3158068060874939, 0.25871342420578003, -0.00763109652325511], [0.27101895213127136, 0.08060085773468018, 1.58708918094635, 0.9313055276870728, -0.5806421041488647, 4.039693832397461, -0.2526538074016571, 0.40936076641082764, -0.022363662719726562, -0.4146276116371155, 0.08974765986204147, 0.49099984765052795, 0.8599894642829895, 0.6595950126647949, -0.10893091559410095, -0.5271192789077759, -0.5290548205375671, -0.42939648032188416, -0.32155463099479675, -0.39494943618774414, -0.3676045536994934, -0.3431583046913147, -0.46741044521331787], [0.15884257853031158, -0.12037970870733261, 1.5515470504760742, 0.46357667446136475, -0.09128861874341965, 1.887180209159851, -0.05534941330552101, -0.4648929834365845, -0.46059268712997437, -0.4408738315105438, 0.18847864866256714, 0.4975954294204712, 0.7505622506141663, 0.4303085207939148, 0.012943609617650509, -1.072608470916748, -0.13819818198680878, 0.1728210747241974, 0.018689105287194252, 0.08193493634462357, 0.15099117159843445, 0.12528866529464722, -0.15158753097057343], [0.07909177243709564, -0.23731984198093414, 0.36243993043899536, -0.049557413905858994, 0.07037103921175003, 2.928823232650757, 0.08551724255084991, -0.24522078037261963, -0.18290984630584717, 0.2493566870689392, 0.286099374294281, 1.1217541694641113, -2.740072011947632, 1.2162789106369019, 0.08757948130369186, 0.1724313348531723, -0.37451475858688354, 0.25063732266426086, 0.20602945983409882, 0.30016782879829407, 0.23860955238342285, 0.19447849690914154, 0.2944515347480774], [-0.05699409171938896, -0.18761245906352997, 5.291399002075195, -0.7514091730117798, -0.3089016079902649, -1.8259767293930054, -0.8179957866668701, 0.9356978535652161, 0.6510893702507019, -0.3964795172214508, -1.6833161115646362, -0.4052638113498688, 0.22649848461151123, -0.2350246012210846, 0.11660323292016983, -0.7898362874984741, 0.309884637594223, 0.31814903020858765, 0.3688790798187256, 0.4286719262599945, 0.4387931823730469, 0.339523583650589, 0.23713858425617218], [-0.02172251045703888, 0.4484376907348633, -2.986510753631592, 0.11370554566383362, -0.3668496012687683, 1.6117885112762451, -0.9069874286651611, -0.5486658215522766, -0.2648575007915497, -0.383931964635849, -0.35066622495651245, -0.7006449103355408, 0.2721097469329834, 0.19638676941394806, 1.0042760372161865, 1.0506881475448608, -0.49332311749458313, -0.5958938002586365, -0.009940920397639275, 0.3819141387939453, 0.24025382101535797, -0.1386917382478714, 0.0950387492775917], [0.05044584348797798, -0.14817339181900024, -0.16586923599243164, -0.2005997896194458, 0.011639867909252644, 0.12948492169380188, 0.053558990359306335, 0.012712068855762482, 0.07265181094408035, -0.1310313194990158, 0.0219828300178051, -0.051799893379211426, -0.1032445877790451, 0.17981721460819244, -0.16131773591041565, 0.030557425692677498, -0.18322421610355377, -0.00707421125844121, -0.09265588968992233, 0.06863198429346085, -0.11708875745534897, 0.1334574669599533, -0.1692025512456894], [-0.05516389012336731, 0.023806951940059662, 4.105112075805664, -1.2469673156738281, -0.7697344422340393, -5.538721084594727, 0.9927027225494385, -0.4557476043701172, -0.7899765372276306, -0.6497949957847595, -0.34815070033073425, -0.4304569661617279, -0.09108272939920425, 0.2136155366897583, -0.35348477959632874, -0.07401992380619049, 0.14307406544685364, -0.011465036310255527, -0.06791339814662933, 0.23338517546653748, 0.4594058692455292, -0.04760285094380379, 0.009058509021997452], [-0.006138626951724291, -0.45374375581741333, 1.4685629606246948, -1.0877453088760376, -3.083649158477783, 2.283597707748413, 0.4761119484901428, -0.01901628077030182, 0.25948333740234375, -0.2957092523574829, 0.8299261331558228, -2.656954050064087, 0.28688380122184753, 0.42959505319595337, 0.28419727087020874, 0.008593166247010231, 0.4728491008281708, -0.00586174800992012, -0.8059102892875671, -0.9667547345161438, 0.1999635100364685, -0.048322342336177826, -0.24771422147750854], [-0.044646166265010834, -0.41185975074768066, 2.747213840484619, 1.8391950130462646, 0.5143714547157288, 2.805290699005127, -0.7004392147064209, -0.26716020703315735, 0.15450169146060944, 0.4497448801994324, -1.307191014289856, 0.08141933381557465, 0.4360794723033905, -0.5221677422523499, 0.11528698354959488, -0.628370463848114, -0.46665385365486145, 0.3753300905227661, -0.9809191226959229, -0.020831750705838203, -0.5598240494728088, -0.7663937211036682, 0.23535308241844177], [0.07564479112625122, -0.15108183026313782, -5.00531530380249, -0.41651615500450134, 0.04659152030944824, -0.2895110249519348, 0.01921422965824604, 0.1058678850531578, -0.021205440163612366, -0.04426119104027748, -0.07783210277557373, 0.01686546951532364, -0.11195486038923264, -0.13530199229717255, 0.03387541323900223, -0.0033501621801406145, 0.5052882432937622, 0.3858897089958191, 0.27453911304473877, 0.4320394992828369, 0.15728266537189484, 0.3579714000225067, 0.4851361811161041], [0.24478808045387268, 0.23493364453315735, 3.8506453037261963, 0.4467237889766693, 0.05393105000257492, 3.124373435974121, 0.22630923986434937, 0.15280452370643616, 0.16986055672168732, 0.31201452016830444, 0.5501718521118164, 0.2935531735420227, 0.20486091077327728, 0.17838118970394135, 0.10180407017469406, 0.10802361369132996, -0.3764462172985077, -0.27475154399871826, -0.21965521574020386, -0.25897058844566345, -0.3090887665748596, -0.23571327328681946, -0.3240651488304138], [-0.1989784985780716, -0.2034948170185089, -0.0007471248973160982, 0.15358583629131317, 0.011740563437342644, -0.03858163580298424, -0.19720810651779175, -0.11740657687187195, -0.16058477759361267, 0.11859437078237534, -0.06453661620616913, -0.30337658524513245, 0.01562442071735859, -0.018695984035730362, -0.10227689892053604, -0.009043367579579353, 0.11213470995426178, -0.19608905911445618, -0.15974116325378418, -0.010017014108598232, -0.1933215707540512, -0.18940609693527222, 0.1409223973751068], [0.08779694139957428, -0.005425035487860441, 0.24060437083244324, 1.3614907264709473, 0.23493686318397522, 4.005717754364014, 0.25219058990478516, 0.45368364453315735, 0.8345254063606262, 0.4117957651615143, -0.12410453706979752, 0.388515830039978, -0.2278199940919876, -0.19580525159835815, 0.21376244723796844, -2.3748207092285156, -0.14977537095546722, 0.3498722016811371, 0.035011276602745056, 0.19762299954891205, -0.1709299087524414, -0.3143402934074402, -0.20632731914520264], [0.013533446937799454, 0.040544506162405014, 4.781309604644775, 0.40412580966949463, 0.205756276845932, 2.3560454845428467, 0.08287526667118073, 0.22873404622077942, 0.22062768042087555, 0.1299877166748047, -0.15439124405384064, -0.01968894526362419, 0.22286081314086914, 0.1423705667257309, 0.18374420702457428, 0.3143148422241211, -0.2044811248779297, -0.25963035225868225, -0.3836328387260437, -0.09245488792657852, -0.31387579441070557, -0.25330469012260437, -0.34953024983406067], [-0.034520722925662994, -0.2765604853630066, -0.610628068447113, -3.8767447471618652, 0.4889757037162781, -16.330488204956055, -0.027758296579122543, 0.4785860776901245, 0.3439562916755676, 0.035711731761693954, 0.2688249349594116, 0.47009605169296265, -0.5195066332817078, 0.4123684763908386, -0.3911307454109192, -0.13089171051979065, -0.45289647579193115, 0.1428598016500473, 0.29157939553260803, 0.2730867862701416, 0.35668984055519104, -0.6134361624717712, 0.01102234236896038], [0.17177212238311768, -0.1924140900373459, 5.259706020355225, 0.8419842720031738, 0.026784908026456833, 2.6869149208068848, 0.12668681144714355, -0.09227411448955536, 0.03791053965687752, 0.13728345930576324, 0.05502032861113548, -0.20812325179576874, 0.2682548463344574, -0.166354238986969, 0.03315471485257149, -0.07116404920816422, 0.018223093822598457, -0.06402406096458435, -0.149205282330513, -0.06068997085094452, -0.03826596587896347, -0.19380612671375275, 0.00034321611747145653], [0.06543000042438507, -0.15200887620449066, 0.9424313902854919, -1.199857473373413, -0.27401572465896606, 1.6966885328292847, 0.1992090344429016, 0.10288821905851364, -0.3719707131385803, 0.10016236454248428, 0.42434456944465637, 0.7486409544944763, 0.18304041028022766, 0.211390420794487, 0.9164638519287109, -2.435415267944336, -0.2013102024793625, -1.5235328674316406, 0.20400188863277435, 0.17931239306926727, -0.8363528847694397, -0.5396965146064758, 0.19575372338294983], [0.048301294445991516, -0.10280945897102356, -0.6889911890029907, 2.177852153778076, 1.5448331832885742, 3.385153293609619, -0.5176872611045837, -0.1335648149251938, 0.49164316058158875, 0.7554951906204224, 0.4793994128704071, -0.08225247263908386, -0.5926868319511414, -0.5846928954124451, -0.16824130713939667, 0.41095831990242004, -0.326905757188797, -0.35947948694229126, -0.1524323672056198, 0.07569301873445511, -0.20746248960494995, -0.018431682139635086, -0.011031660251319408], [-0.05292495712637901, -0.28510209918022156, -0.7332486510276794, -3.872861385345459, 0.12217946350574493, -2.293085813522339, 0.15547475218772888, 0.2511955797672272, 0.3401450514793396, -0.050368405878543854, 0.3577658534049988, 0.17560921609401703, 0.05143991485238075, 0.06735315173864365, 1.6579960584640503, -2.944679021835327, 0.6894406676292419, -0.6986395716667175, 0.3724116384983063, -0.24053803086280823, 0.24238991737365723, -0.4182504713535309, -0.624848484992981], [0.24158383905887604, -0.04667966440320015, 4.359130382537842, 0.5869815349578857, 0.09215957671403885, 4.397616863250732, 0.2986270785331726, 0.13893906772136688, 0.1217343881726265, 0.0018936361884698272, 0.21096192300319672, 0.0028823043685406446, 0.2090149074792862, 0.08345294743776321, 0.27209043502807617, 0.2347496598958969, -0.6013424396514893, -0.2150111198425293, -0.2448088377714157, -0.4782279431819916, -0.24533140659332275, -0.39524224400520325, -0.2927960455417633], [0.045908406376838684, 0.08956212550401688, 1.5475538969039917, 1.7383826971054077, -0.1528502106666565, 5.063488960266113, -0.17398600280284882, 0.16585120558738708, -1.9381979703903198, -0.8224420547485352, 0.23326842486858368, 0.5280092358589172, 0.3411332666873932, 0.1386157125234604, 0.31420475244522095, 0.14264556765556335, -0.3495226800441742, 0.294048011302948, -0.6707780361175537, -1.3757870197296143, 0.005144400056451559, -0.09000568091869354, -0.7644938826560974], [-0.025906478986144066, 0.11239589750766754, -13.410872459411621, -0.4332466721534729, 0.031070321798324585, -2.9469478130340576, 0.7671309113502502, 0.3790527880191803, 0.25891241431236267, -0.4316600263118744, 0.043104421347379684, -0.24928894639015198, -0.3619058430194855, -0.08121117949485779, -0.36750733852386475, -0.22621594369411469, 0.11095893383026123, 0.08247483521699905, 0.08822216838598251, 0.09687136113643646, 0.12111527472734451, 0.13942493498325348, 0.12658141553401947], [0.12659507989883423, -0.02025258168578148, 1.1479955911636353, 1.8190101385116577, -1.8933467864990234, 5.060895919799805, 0.8531284928321838, 0.8707858920097351, 0.49068373441696167, 0.18128229677677155, -1.4290834665298462, -0.3707142770290375, -0.17354191839694977, -0.9798278212547302, -0.03839629888534546, 0.3306805491447449, -0.07881201803684235, 0.11405730247497559, 0.2703726887702942, 0.001107680145651102, -0.10093478113412857, -0.653270423412323, 0.17491433024406433], [0.29867684841156006, 0.027612317353487015, 1.1667811870574951, -0.3067871034145355, -0.17249105870723724, 0.17807462811470032, 0.025287896394729614, -0.49603399634361267, 0.26918742060661316, 0.7045985460281372, 0.9718188047409058, 0.40939396619796753, -1.5600236654281616, -0.6524800062179565, -0.17105881869792938, 0.10439972579479218, -0.7926652431488037, -0.19227436184883118, -0.47978475689888, -0.156305193901062, 0.5122349858283997, -0.2694896459579468, -0.42119917273521423], [-0.0649290606379509, 0.09120825678110123, -3.4785754680633545, 0.4484183192253113, -0.39431846141815186, 0.9585094451904297, 0.11637823283672333, 0.03282172605395317, 0.22271716594696045, 0.1712745726108551, -0.15838822722434998, 0.21122781932353973, 0.015510289929807186, -0.015178161673247814, 0.08860981464385986, 0.16250889003276825, 0.2752852737903595, 0.36455538868904114, 0.45138686895370483, 0.29670608043670654, 0.40608784556388855, 0.274887353181839, 0.23690807819366455], [0.22371888160705566, -0.3757484555244446, -5.687179088592529, -1.4536339044570923, 0.10790852457284927, -1.9585896730422974, -0.11458918452262878, 0.7548601627349854, -0.02510686218738556, -0.15260815620422363, 0.12278661131858826, -0.03840399160981178, -0.23532859981060028, 0.4742431044578552, 0.10178611427545547, -0.05834244191646576, 0.23833191394805908, 0.18873658776283264, 0.1269015669822693, 0.18777769804000854, 0.17842760682106018, 0.17767825722694397, 0.14416787028312683], [-0.002321509411558509, 0.25023993849754333, -0.3165248930454254, 1.9562504291534424, -0.306907057762146, 4.303223609924316, 0.3715517222881317, 0.1430761069059372, 0.2700920104980469, 0.003401697613298893, 0.37859904766082764, -2.661708354949951, -0.29522576928138733, -0.23657836019992828, 0.5921170711517334, 0.0012304112315177917, -0.5764184594154358, 0.3201114237308502, 0.26346057653427124, 0.18299007415771484, 0.11936133354902267, 0.29859334230422974, 0.2552412450313568], [-0.034745726734399796, -0.19158311188220978, -3.451951265335083, -0.40496933460235596, 0.006516206543892622, 4.223867893218994, 0.5562936067581177, -0.776253342628479, -0.2022421509027481, 0.2717432975769043, 0.10938284546136856, 0.23046138882637024, -0.24000373482704163, 0.07615464180707932, -0.1220230907201767, 0.515390932559967, -0.5115101337432861, -0.44345012307167053, -0.5574542284011841, -0.1801832914352417, -0.5799374580383301, -0.4025171399116516, -0.024000531062483788], [0.05305653065443039, 0.45680952072143555, 3.324892520904541, 0.21657584607601166, -0.45226559042930603, -3.2334418296813965, 0.13621123135089874, 0.355318158864975, 0.6468996405601501, -0.3060770630836487, -1.8735193014144897, -0.508733868598938, 0.5039142966270447, 0.033135563135147095, -0.1663884073495865, -0.05355830118060112, -0.8770791292190552, -0.03932633996009827, -0.514777660369873, 0.29948610067367554, 0.3035535216331482, 0.17400702834129333, -0.510543167591095], [0.0187392421066761, -0.17634433507919312, 2.850447416305542, 1.0174401998519897, 0.07885229587554932, -14.758145332336426, 0.20948290824890137, -0.46999529004096985, 0.21917426586151123, -0.05837513878941536, -0.16187076270580292, 0.357067734003067, -0.30788469314575195, 0.3508894741535187, -0.2382863312959671, -0.026088401675224304, 0.4512641727924347, -0.7229319214820862, 0.0773625299334526, 0.07341873645782471, -0.4943702816963196, 0.2835386097431183, 0.35847705602645874], [0.10566247999668121, -0.06298205256462097, 1.1583939790725708, -0.5127049684524536, -0.08486046642065048, 5.939458847045898, -2.166076183319092, 1.3441494703292847, 0.12809976935386658, 0.2788447439670563, -0.15029937028884888, 0.043530624359846115, 0.026557793840765953, 0.16446013748645782, 0.04457465559244156, 0.08220040053129196, -0.2597739100456238, 0.15462949872016907, 0.0806150957942009, 0.22579318284988403, 0.05335310474038124, -0.9135243892669678, 0.21468345820903778], [-0.08317501842975616, 0.1387878954410553, 0.9550786018371582, 1.1119003295898438, -0.7104319334030151, 1.9664320945739746, 0.12222225219011307, -1.6270469427108765, 1.3656710386276245, -0.20466044545173645, -1.0199826955795288, 0.22497089207172394, 0.35986995697021484, 0.8438553810119629, -0.37163370847702026, -0.16429774463176727, -0.8713973760604858, -0.10265520215034485, -0.4044027030467987, -0.048608142882585526, 0.36289870738983154, -0.6809109449386597, -0.5467017889022827], [-0.02980283834040165, 0.034522779285907745, 1.8128663301467896, -1.078243613243103, -0.5682483315467834, 4.02890157699585, -1.172789454460144, 0.9802019596099854, 0.9579604268074036, 0.46143239736557007, 0.5674192309379578, -0.8654003739356995, -0.47068530321121216, -1.042018175125122, -0.2751256227493286, -0.1452491134405136, -0.06853783875703812, 0.2128704935312271, 0.1597883701324463, 0.4498857855796814, 0.24667921662330627, 0.005173895042389631, 0.2975660562515259], [-0.22933976352214813, 0.14372098445892334, 1.692083716392517, 0.7943876385688782, -0.4758235812187195, 2.879265785217285, -1.8201861381530762, -0.22028426826000214, 0.8061893582344055, 0.36466652154922485, -0.1993938833475113, -0.5140914916992188, 0.46534791588783264, 0.6869876384735107, 0.32216963171958923, -1.110499620437622, 0.42986705899238586, -0.7403907775878906, -0.1041882336139679, -0.013151113875210285, -0.6763891577720642, -0.5412998795509338, 0.1843363493680954], [-0.09998010843992233, -0.18891221284866333, 0.033744797110557556, -0.3014369308948517, -0.163920596241951, 0.07154082506895065, -0.7995297908782959, 0.23535168170928955, 0.19674994051456451, 0.39548152685165405, 0.032640550285577774, -0.20527337491512299, 0.015474595129489899, 0.02472047507762909, -0.4275345504283905, -0.6027835011482239, -0.15384195744991302, -0.29266098141670227, 0.09087207913398743, -0.4779247045516968, 0.041017789393663406, -0.3151232898235321, 0.08710242062807083], [0.2095913589000702, -0.1274760216474533, 2.1185295581817627, -1.1170024871826172, -1.098432183265686, 0.40809303522109985, 0.37869367003440857, 0.1804545670747757, 0.009801019914448261, -1.679917573928833, -0.3412306308746338, 0.3161527216434479, -1.0283558368682861, 1.0886207818984985, 0.840959906578064, -0.3455677330493927, -0.5948604941368103, -0.536281406879425, 0.46444371342658997, 0.28366369009017944, -0.5514430403709412, -0.39649176597595215, 0.31463491916656494], [0.05616778880357742, 0.03590011969208717, -1.3655974864959717, 0.3951033055782318, -0.1855573058128357, -2.544746160507202, 0.05247487872838974, 0.363215833902359, -0.04639841243624687, 0.7427991628646851, 1.1223115921020508, 0.2980831265449524, -0.6774953603744507, 0.16968603432178497, -1.3822033405303955, -0.07055825740098953, -0.028258975595235825, -0.45611467957496643, -0.8680288195610046, -0.6241825222969055, 0.14614173769950867, 0.35268279910087585, -0.05867636203765869], [0.2567104995250702, 0.38169386982917786, 0.5063078999519348, -0.4189754128456116, -0.05550092086195946, 2.0061233043670654, -0.1397007256746292, -0.09081345051527023, 0.04003695398569107, 0.04836968705058098, -0.01337607204914093, -0.20631718635559082, 0.20050761103630066, 0.02779064141213894, 2.263791799545288, -2.9997074604034424, -0.3254651129245758, 0.21672303974628448, 0.13914568722248077, 0.1444256603717804, 0.23861362040042877, 0.2560691833496094, 0.023407744243741035], [-0.11636891961097717, -0.1889486461877823, -0.15731897950172424, 0.4341199994087219, 1.7972396612167358, -1.0000661611557007, 0.19376637041568756, -0.21781837940216064, -0.5122493505477905, -0.8163485527038574, 0.05902783200144768, 0.16624026000499725, 0.33161231875419617, -0.20148994028568268, -0.2963600754737854, -0.006996387615799904, 0.06275901198387146, -0.10654781013727188, -0.11367493867874146, -0.20389790832996368, 0.07930444180965424, -0.37121009826660156, -0.3965238928794861], [0.052208270877599716, 0.20141318440437317, 3.357633590698242, 1.0258764028549194, -0.8196919560432434, 1.2288248538970947, -0.10832978039979935, -1.6174341440200806, -0.18406829237937927, -1.0163207054138184, -0.24411341547966003, -0.03574497997760773, 0.3211265802383423, 0.593506932258606, 0.6855953931808472, 0.3711201548576355, -0.3377437889575958, -0.6758257150650024, 0.29559165239334106, 0.36735835671424866, -0.5906286835670471, 0.10143759101629257, -0.5545732975006104], [0.23820175230503082, 0.2095285803079605, 4.090215682983398, -1.220723271369934, -0.23588521778583527, -1.0069040060043335, 0.3100282549858093, -0.49482426047325134, -0.11842832714319229, -1.7532604932785034, -0.5136460065841675, -1.8041671514511108, 0.8502398133277893, 0.7117822170257568, 1.091300129890442, -0.011932914145290852, -0.37943992018699646, 0.4688926935195923, -0.09753932803869247, 0.3306035101413727, -0.2793046236038208, 0.06863904744386673, -0.07067620754241943], [-0.04747334495186806, 0.27713191509246826, 5.527378082275391, -0.9861956238746643, -0.02336749993264675, -9.460792541503906, -0.32895955443382263, 0.17345553636550903, -0.13805194199085236, -0.0499386228621006, -0.08615045994520187, 0.03469833359122276, -0.23084765672683716, -0.08962085843086243, -0.30248337984085083, 0.10998448729515076, 0.32055580615997314, 0.010330271907150745, 0.022660519927740097, 0.0645025447010994, 0.007527319248765707, 0.07236568629741669, -0.030721474438905716], [-0.03291107714176178, -0.41201052069664, -0.6813172698020935, 2.0850656032562256, 0.20819026231765747, 5.266091346740723, 0.06036527827382088, 0.784972071647644, -0.8360069990158081, -0.01612953469157219, -1.4360579252243042, 0.3876676857471466, -0.42380383610725403, 0.5486446619033813, 0.5917609930038452, 0.5551909804344177, 0.2619629204273224, -0.018855975940823555, -0.5747952461242676, -0.8968886137008667, -0.06246135011315346, -0.38361167907714844, 0.36319518089294434], [0.19794002175331116, -0.010942398570477962, 4.433815002441406, 0.39713743329048157, -0.02641245722770691, 3.4940052032470703, 0.038180626928806305, 0.19749145209789276, 0.08459249138832092, 0.19145965576171875, 0.2952631413936615, 0.3163139224052429, 0.3696467876434326, 0.28396734595298767, 0.32043659687042236, 0.1557164341211319, -0.42634516954421997, -0.2793341279029846, -0.2645968198776245, -0.31181129813194275, -0.37072497606277466, -0.3741937577724457, -0.36578136682510376], [0.12178327888250351, -0.15574967861175537, 0.033103786408901215, -0.1693485528230667, -0.011946186423301697, 3.213280200958252, -0.2707005739212036, 0.15142275393009186, 1.293900728225708, -2.6306307315826416, 1.0344228744506836, 0.6292809247970581, -0.4261884391307831, 0.4629128575325012, -0.35622063279151917, 0.5301831364631653, -0.5642128586769104, 0.14036303758621216, 0.14966993033885956, 0.2198120504617691, 0.19126857817173004, 0.14645729959011078, 0.20984014868736267], [-0.09774275869131088, -0.32180139422416687, -4.106302261352539, -0.629163384437561, -0.39211761951446533, 0.27093183994293213, -0.0973607525229454, -0.08809718489646912, 0.19114305078983307, 0.14318199455738068, 0.17273476719856262, 0.0872759148478508, -0.015078268945217133, -0.16345012187957764, -0.015399211086332798, 0.042952850461006165, 0.16382808983325958, 0.2640122175216675, 0.21632283926010132, 0.2201092541217804, 0.283920556306839, 0.2797640860080719, 0.23902906477451324], [0.011933376081287861, -0.24369752407073975, 0.9525802731513977, 1.9472529888153076, 0.019008740782737732, 1.0976266860961914, 0.15008053183555603, -0.9161326885223389, -0.16432593762874603, -0.09315073490142822, 0.3559495210647583, 0.6108609437942505, 1.3516052961349487, -0.04500585049390793, -1.1261087656021118, -0.4837026000022888, 0.4374370574951172, -0.3076789379119873, -0.3651770353317261, 0.39139342308044434, -0.38149645924568176, -0.10054871439933777, 0.3404328227043152], [0.027688944712281227, 0.03980223834514618, -1.3647226095199585, 1.1194709539413452, -0.06113194301724434, -1.0461475849151611, 0.7277206182479858, 0.42892640829086304, 0.5822509527206421, 0.09837158769369125, -0.7790580987930298, 0.8904001116752625, -0.57491135597229, 0.109193354845047, 0.13115277886390686, -1.0949617624282837, 0.19556985795497894, -1.5596617460250854, 0.22086229920387268, -0.5936270356178284, -0.12778471410274506, 0.12708163261413574, 0.08936337381601334], [-0.11104094237089157, 0.14301927387714386, -4.605647563934326, 2.0620875358581543, -0.19283713400363922, 1.5150686502456665, 0.5577388405799866, -0.2340964525938034, 0.6665297746658325, 0.20383545756340027, 0.11164781451225281, 0.5635841488838196, -0.2779277265071869, -0.3483351469039917, 0.5520519018173218, -0.7486079335212708, 0.06363028287887573, 0.0830274298787117, -0.06660893559455872, 0.1666506975889206, 0.12128908932209015, 0.15372155606746674, -0.27388274669647217], [0.137703537940979, -0.21935361623764038, 1.8777726888656616, 1.7151539325714111, -0.11935669928789139, 0.23426836729049683, -0.1714877337217331, 0.739062488079071, -0.08501123636960983, -0.22288468480110168, 0.4222160875797272, 0.5718136429786682, 0.47243592143058777, 0.10125415027141571, -2.1951022148132324, 0.23510585725307465, 0.04722166061401367, -0.021637581288814545, 0.057755615562200546, 0.09838027507066727, -0.16284988820552826, 0.15992872416973114, 0.18464213609695435], [0.10484295338392258, -0.23658666014671326, 0.19964303076267242, -0.5353831648826599, 0.061662059277296066, 2.2749340534210205, -2.3162288665771484, 1.0158318281173706, 0.3049926459789276, 0.11175272613763809, 0.3295246958732605, -0.07786079496145248, 0.02818957343697548, 0.2790217995643616, -0.30317720770835876, 0.5922738313674927, 0.4371519982814789, -0.4996141195297241, 0.1868641972541809, -0.6984103918075562, -0.0969943255186081, -0.5568817853927612, -0.5952420830726624], [0.11091656982898712, 0.7571591138839722, -5.189242839813232, 1.0011533498764038, -0.3395027220249176, -0.6788608431816101, -0.23572905361652374, -0.30539238452911377, -0.6805950999259949, -0.6923133134841919, -0.9146848917007446, 0.773495078086853, 1.2090541124343872, 0.34607750177383423, -0.5943344235420227, -0.6792832612991333, 0.060025058686733246, 0.22746548056602478, 0.266905277967453, 0.06915796548128128, 0.3315592110157013, 0.2512287497520447, -0.3382682204246521], [0.21055559813976288, 0.11730387806892395, 5.809800624847412, 0.7904590368270874, -0.021414462476968765, 1.6591283082962036, 0.12329817563295364, 0.29636234045028687, 0.09933790564537048, -0.18397003412246704, 0.07944132387638092, -0.087809257209301, 0.11228685081005096, -0.2010064274072647, 0.021819140762090683, 0.0016054683364927769, -0.047432154417037964, 0.022790303453803062, 0.012541434727609158, -0.018755748867988586, 0.010658069513738155, 0.00579923577606678, 0.014098595827817917], [0.20057207345962524, 0.12680655717849731, -1.9922442436218262, 0.7033121585845947, -1.2272461652755737, 1.6196526288986206, 0.15022343397140503, -0.062056414783000946, 0.07853224873542786, -0.1852119415998459, 0.24767208099365234, 0.11040456593036652, 0.22792986035346985, 0.1320289969444275, 0.11772175133228302, 0.2123139649629593, 0.30334264039993286, 0.3406524062156677, 0.32431790232658386, 0.3658631145954132, 0.40824034810066223, 0.28633421659469604, 0.30958718061447144], [0.1420537680387497, 0.3958127200603485, -1.3778914213180542, -2.4040462970733643, -0.14639782905578613, -1.2872645854949951, -2.740065097808838, 0.9754396677017212, 0.48486748337745667, 0.16947978734970093, 0.19480448961257935, 0.31537526845932007, -0.25312864780426025, 0.22227734327316284, -0.2317507117986679, -0.02885599434375763, 0.3889338970184326, 0.0754726380109787, 0.029697014018893242, 0.023484107106924057, 0.3954327702522278, -0.8405944108963013, -0.6396496891975403], [-0.09885548055171967, -0.5579027533531189, 1.6771177053451538, -2.176077365875244, 0.35473403334617615, 2.33062481880188, 0.5051905512809753, -1.2997030019760132, -0.7857239842414856, -0.8146432638168335, 0.5421208739280701, 0.6890608668327332, 0.2512555420398712, 0.5409225225448608, 0.23849260807037354, 0.14150990545749664, -0.4148488938808441, 0.5268939137458801, -0.37889546155929565, 0.35349240899086, -0.308052122592926, -0.4116334617137909, 0.44614648818969727], [0.04256457835435867, -0.20045879483222961, 2.6777050495147705, 0.8686566948890686, -0.22368699312210083, 0.9049450159072876, 0.3001457750797272, 0.049560390412807465, 0.1916583925485611, 0.15858818590641022, 0.15708020329475403, -0.06090903282165527, -0.6973420977592468, 0.838462769985199, 0.7188960909843445, -1.7873307466506958, -1.2369189262390137, 0.18334990739822388, -0.8009948134422302, -1.1976984739303589, 0.20979753136634827, 0.22498327493667603, -0.36179667711257935], [-0.06599270552396774, 0.07559104263782501, -0.2781980633735657, 0.153204083442688, 0.17258790135383606, -0.32196682691574097, 0.6263993382453918, 0.7414772510528564, -0.20395684242248535, -3.2669811248779297, -0.11178691685199738, 0.42653173208236694, 0.5800965428352356, 0.22293154895305634, -0.26996827125549316, 0.6459081768989563, -0.11433262377977371, -0.5390269160270691, 0.25584012269973755, 0.42452874779701233, 0.2205483615398407, -1.417824387550354, -0.12202966213226318], [-0.13727857172489166, 0.2646504342556, 3.6736509799957275, 0.9627493023872375, 0.013390048407018185, -10.517444610595703, -1.0017691850662231, 0.5916648507118225, 0.04775441437959671, -0.20365512371063232, 0.052224788814783096, 0.057418592274188995, -0.035319577902555466, 0.114406056702137, 0.009004051797091961, -0.2463683933019638, 0.37511253356933594, -0.9069527387619019, 0.13394440710544586, 0.10768481343984604, 0.0919727087020874, 0.09399328380823135, 0.1695299595594406], [-0.17351198196411133, 0.4391903579235077, 4.008631229400635, 1.2017934322357178, -0.5730684995651245, 0.3848207890987396, -1.5985153913497925, -0.6666498184204102, 0.025806598365306854, 0.5657925605773926, 0.5980783700942993, 0.23827478289604187, -1.198078989982605, -0.520317018032074, 0.0627971664071083, -0.8183560967445374, 0.29488205909729004, 0.2439602166414261, -0.03438199311494827, 0.2576351463794708, 0.22473466396331787, -0.027078811079263687, 0.26427391171455383], [0.13476458191871643, 0.16269905865192413, -8.033581733703613, -0.08405997604131699, -0.015531856566667557, -1.7319241762161255, -0.01767568103969097, 0.004121848847717047, -0.11213680356740952, -0.08896350115537643, 0.02700641192495823, 0.02185688726603985, -0.042475856840610504, 0.1395878940820694, -0.030156517401337624, -0.079678013920784, 0.3224124610424042, 0.3214283585548401, 0.29375651478767395, 0.32617709040641785, 0.29695355892181396, 0.3008095622062683, 0.3291996717453003], [-0.14629331231117249, -0.1148412898182869, 1.202053189277649, 0.2103426158428192, -0.43574807047843933, -0.04439343139529228, -0.16280965507030487, -0.2550712823867798, -0.07251430302858353, -0.4209938943386078, -0.19629530608654022, -0.26541879773139954, 0.06741788238286972, -0.2642097771167755, -0.1713690310716629, -0.12489118427038193, -0.05809321999549866, -0.09501585364341736, -0.0719660148024559, 0.02977924793958664, -0.004554434213787317, -0.11433596909046173, 0.05738016963005066]], "b": [-0.28096091747283936, -1.1376358270645142, -0.20293179154396057, -0.43187034130096436, -0.2620754837989807, -0.4378500282764435, -0.49749627709388733, -0.1966371238231659, 0.15472707152366638, -0.44042521715164185, -0.18554753065109253, -0.43107324838638306, -0.5294552445411682, -0.6089048981666565, -0.30854666233062744, -0.847195029258728, -0.4377085864543915, -0.5646227598190308, -0.15621033310890198, -0.4212090075016022, -0.5453144311904907, -0.5339035987854004, 0.33615943789482117, -0.9182787537574768, -0.4553212523460388, -0.2653164863586426, 0.8068227171897888, -0.48524561524391174, -0.3714064359664917, -0.534772515296936, -0.6765902042388916, -0.7400684952735901, -0.5392001867294312, -0.6590744256973267, -0.4072982668876648, -0.5899132490158081, -0.4506908059120178, -0.6590544581413269, -0.5392788648605347, -0.56406569480896, 0.38559114933013916, -0.5769332051277161, -0.41244977712631226, -0.0884949266910553, -0.6215600371360779, -0.04246613755822182, -0.0428762324154377, -0.36978715658187866, -0.22940687835216522, -0.4927006661891937, -0.15670053660869598, -0.3501233458518982, -0.32750239968299866, -0.5755361914634705, -0.9155275821685791, -0.18062694370746613, -0.2080230861902237, -0.02165369503200054, 0.07725024968385696, -0.6754308938980103, -0.05871091037988663, -0.5848104357719421, -1.538590908050537, 0.5611661672592163, -0.6916835308074951, -0.7543601989746094, -1.4555197954177856, -0.16184644401073456, -0.5254451632499695, 0.1097889319062233, -0.43817707896232605, -0.194318488240242, -0.15914379060268402, -0.5436583161354065, -0.34675437211990356, 0.6520892381668091, -1.0946863889694214, -0.16820961236953735, -0.47409868240356445, -0.9082779288291931, -0.010670452378690243, -0.38196706771850586, -0.41919130086898804, -0.8333641886711121, -0.6360596418380737, -0.9342261552810669, -0.46219488978385925, 0.2357921302318573, -0.5977736115455627, -0.6919461488723755, 0.8631338477134705, 0.19676803052425385, -0.4119659662246704, -0.7085467576980591, -0.40884190797805786, -0.018412601202726364, -0.33502018451690674, -0.2883342206478119, -0.4136761426925659, -0.394864559173584, -0.3812604546546936, -0.31893497705459595, -0.509863555431366, -0.28640007972717285, -0.6626380085945129, -0.8399897217750549, -0.4098905026912689, 0.20758531987667084, -0.375686377286911, -1.2541812658309937, -0.5744953751564026, 0.5978930592536926, -0.6419599056243896, -0.521685779094696, -0.40066447854042053, -0.21896842122077942, -0.400097131729126, -0.04018142819404602, -0.3171791434288025, 0.5815865993499756, -0.22049959003925323, -0.37203630805015564, -0.4928261935710907, -0.5785610675811768, 0.007785228546708822, 0.04695838317275047, 0.45986559987068176, -0.09079344570636749]}, {"w": [[1.1471784114837646, -0.5423948168754578, 0.46034595370292664, -1.450609803199768, 0.36010628938674927, -0.8263402581214905, 0.3576658368110657, -0.037467196583747864, -1.9012881517410278, 0.17103451490402222, -0.5760272741317749, 1.4038923978805542, -1.3546220064163208, -0.4967842996120453, -1.6308259963989258, 0.001984060276299715, -1.3706446886062622, 0.022209521383047104, 0.31257596611976624, -0.10492154210805893, 0.2942994236946106, 0.39826223254203796, -1.034419298171997, -0.14276334643363953, 0.32541128993034363, 0.9371457695960999, -0.4003182649612427, -0.4490419030189514, 0.7246591448783875, -0.740738570690155, -0.5636170506477356, -0.031224995851516724, -1.7587488889694214, -0.3931017220020294, -1.14108407497406, 0.5755004286766052, -0.1362268477678299, -0.5310025215148926, -0.6211660504341125, -0.6642952561378479, -0.7887477278709412, -0.3328353464603424, 0.8449330925941467, -0.025143882259726524, 0.4052662253379822, -0.17206770181655884, 0.2776319980621338, -2.419837474822998, 0.2193867564201355, -1.6477439403533936, 0.37691450119018555, 0.3402355909347534, -0.22514620423316956, 1.2087982892990112, -0.22034353017807007, -2.1519925594329834, -0.621921718120575, 0.7272177934646606, 0.9237901568412781, 0.5660562515258789, 0.6148996353149414, -0.5459195971488953, 0.10606224089860916, -0.3904302716255188, -0.40985143184661865, 0.2431490570306778, 0.42829015851020813, 0.32187163829803467, 0.21993209421634674, -1.4724234342575073, -0.47435078024864197, -0.04944280534982681, -0.6718153357505798, -0.08905629813671112, 0.9476817846298218, -0.14451104402542114, -0.5232651233673096, -0.06448628753423691, -1.8400981426239014, 0.0898597240447998, -0.8164408206939697, -0.006615422200411558, -0.49788397550582886, 0.23645615577697754, -0.19779346883296967, -0.5592451691627502, -1.3796616792678833, 0.8722760677337646, 1.1679755449295044, -0.748960554599762, -0.05545767396688461, 0.13969260454177856, 0.8068780899047852, -0.36618003249168396, 0.30408725142478943, 0.35555291175842285, 1.4246470928192139, 0.9160367846488953, 0.509410560131073, -1.014174461364746, 0.5247642397880554, -0.9356818199157715, -0.790431022644043, -0.08383646607398987, -2.0286781787872314, -0.36538198590278625, -1.4422403573989868, -0.1297537088394165, 0.054648641496896744, -0.9978193640708923, -1.761872410774231, 0.08874797075986862, 1.0924310684204102, -0.15426360070705414, 0.04210774973034859, 0.053005289286375046, -1.3953137397766113, -1.2853161096572876, 0.16567817330360413, 0.26086774468421936, 0.6098175644874573, 0.24065575003623962, -0.927614152431488, -2.2347543239593506, 0.6711041331291199, 0.7867481112480164, -2.8179588317871094, 0.18687763810157776], [-0.6779019236564636, -0.4718828797340393, 2.1694679260253906, -0.10036300122737885, 0.4228183329105377, -0.827745795249939, 0.20295321941375732, 0.11517597734928131, -1.2769927978515625, 0.04912828281521797, -1.775445580482483, -1.2415040731430054, 0.5523561239242554, -0.8460646271705627, 0.8344546556472778, -0.9930261373519897, -0.33910906314849854, 0.41167140007019043, 0.5380246043205261, -0.4199187755584717, 0.12864509224891663, 0.3026401996612549, -2.8083181381225586, -1.188543438911438, 0.03334251046180725, 1.2061625719070435, -0.09905582666397095, 0.37868624925613403, -0.48374253511428833, -2.9033873081207275, -2.586961269378662, -1.0758583545684814, 0.16300217807292938, -0.5238189101219177, -1.2198517322540283, -0.3355907201766968, 0.3346557021141052, 0.02050083503127098, -0.20596615970134735, -0.7461063265800476, -0.32947561144828796, -1.2086695432662964, -0.5969937443733215, 0.017960848286747932, 0.31590479612350464, -1.6721822023391724, 1.2179275751113892, -1.103188157081604, 1.3600469827651978, 0.11912225931882858, 0.9324972033500671, 0.6382632851600647, 0.6029081344604492, -0.44450655579566956, 1.6079078912734985, -2.3053014278411865, -1.0556460618972778, 0.4512430727481842, 0.499173641204834, -1.0285602807998657, 1.15500807762146, -1.0795841217041016, -1.8182848691940308, -0.22858785092830658, 2.50960373878479, 0.593148410320282, -0.4381158947944641, 0.0908559039235115, -1.4197994470596313, -0.3399546146392822, -1.4064433574676514, 0.03115248493850231, 1.1165931224822998, 0.024185292422771454, -0.2557579576969147, -0.23034778237342834, -2.1361634731292725, 0.03922347351908684, 1.4342089891433716, -1.8708068132400513, -0.06469632685184479, -1.239675521850586, 0.8712825179100037, -1.1717511415481567, 2.8055155277252197, -1.8676807880401611, -0.6149958968162537, 0.952261209487915, -1.2148240804672241, 0.28989937901496887, -0.16387943923473358, -0.47772571444511414, -2.1550116539001465, -0.1705045849084854, -0.6827386617660522, -0.0563051775097847, 1.3176894187927246, -0.9412304759025574, -0.5109812021255493, -1.3366185426712036, 1.0036354064941406, 0.28252285718917847, 0.9247771501541138, 0.42895615100860596, 0.28243210911750793, -0.8028333187103271, 0.35589906573295593, 0.40742892026901245, -1.9057393074035645, -0.3880932033061981, -0.19296246767044067, -0.056117843836545944, -0.4690719246864319, 1.811710000038147, 1.5389020442962646, 0.9778127074241638, 2.154365301132202, 1.1338751316070557, -0.2242797315120697, -0.12793974578380585, 1.0988409519195557, 0.7839454412460327, 0.008973564021289349, 0.7658855319023132, 0.25703415274620056, 1.206593632698059, -1.1626447439193726, -0.19827160239219666], [-0.7537572383880615, -2.3946940898895264, -0.2592381536960602, -1.0149133205413818, -1.8360146284103394, -3.2863011360168457, 0.34751248359680176, 0.04163429141044617, 1.339967966079712, 0.5294811129570007, 0.6867417693138123, 1.31707763671875, 1.6869062185287476, 0.02418176643550396, -0.2515835464000702, 1.19305419921875, -1.0070817470550537, -2.5851986408233643, -0.28416040539741516, -0.1307026892900467, -0.06305503845214844, -0.05455569922924042, -0.8294095396995544, -1.72050142288208, 0.07098723948001862, -0.892370343208313, -0.24450404942035675, 0.7035408020019531, -0.608273446559906, -0.8621459007263184, -0.5216779112815857, -1.4668328762054443, 0.41973647475242615, -0.6633634567260742, 1.5638930797576904, -0.32986679673194885, 0.9904502630233765, 2.0415334701538086, -0.1009170413017273, -1.7927814722061157, -0.11262233555316925, -1.2663333415985107, -0.9007161855697632, -0.03282969817519188, -0.629723072052002, -0.04247942566871643, 1.0996941328048706, -0.48447662591934204, -0.5531061291694641, -0.14878736436367035, -0.7745922803878784, 1.23451566696167, -1.3157131671905518, 0.5120307803153992, 0.6851497888565063, -1.8459193706512451, -0.49627622961997986, -0.3671329915523529, 0.1863192617893219, 0.15338627994060516, -0.9932734966278076, -1.5018556118011475, -0.07150769233703613, 0.4539860188961029, 0.5177882313728333, -1.9170947074890137, -0.7449793219566345, -0.8967206478118896, -0.9232522249221802, 0.5721819996833801, -0.2583514153957367, 0.06032473221421242, 0.018767183646559715, -0.6539443135261536, 0.4589919447898865, 0.3176180422306061, -2.347709894180298, 0.040799472481012344, -2.9195988178253174, -1.137166142463684, -0.3925216495990753, 0.5182873010635376, 0.01631752774119377, -1.2285224199295044, -0.6295322775840759, -1.805485725402832, 0.7693267464637756, -4.422178745269775, 0.16179968416690826, 1.3439229726791382, -0.12547704577445984, -0.1650589555501938, 0.6300260424613953, -0.8662777543067932, -0.17926578223705292, -0.7668182253837585, -3.3288116455078125, -2.17332124710083, -0.35035455226898193, -0.27884790301322937, 0.6422914862632751, 1.2881501913070679, -0.42750582098960876, 1.1659904718399048, 0.14252649247646332, 0.036881327629089355, 0.7784321904182434, -0.06801234930753708, 0.8415732979774475, -2.574958324432373, 0.5487369894981384, 0.18015973269939423, -0.7871698141098022, -0.36283695697784424, 0.45380899310112, -1.6369407176971436, -0.4046563506126404, -0.017214559018611908, 0.4769883155822754, -0.26984283328056335, -1.018366813659668, -0.22444352507591248, -1.4358429908752441, 0.5986119508743286, -0.545272707939148, 0.29092371463775635, -0.9622328877449036, -0.09923268109560013], [-0.8069233894348145, 0.09108187258243561, -0.6411729454994202, -0.6553382873535156, -0.1431899219751358, 0.30706465244293213, 0.9269678592681885, 0.07638954371213913, 0.21304529905319214, 0.09451045095920563, -1.1860871315002441, -0.10772962123155594, 0.936783492565155, -0.8463796973228455, -0.6017860770225525, -0.4917484521865845, -0.9831470847129822, -0.693679928779602, -0.05642715096473694, 0.04559548199176788, 0.6247346997261047, 0.9032529592514038, -0.06454262882471085, -0.4649459421634674, -0.1661873757839203, -0.6048611998558044, -0.11655493080615997, 0.4381656050682068, -0.7763295769691467, -1.3813637495040894, -0.5347228646278381, 0.5534680485725403, -0.8122404217720032, -0.39741939306259155, 0.55928635597229, 0.0009279391379095614, -0.48340147733688354, -0.5005490779876709, -0.1628824919462204, -0.7180876731872559, -0.18703606724739075, -0.059566106647253036, -1.049990177154541, 0.010939204134047031, -0.7874126434326172, -0.331610769033432, 0.441452294588089, -0.025911778211593628, -0.4485114514827728, -0.2006911039352417, -0.5052080154418945, -0.022580936551094055, -0.5597977042198181, -0.335831880569458, 0.02554328739643097, 0.034952692687511444, 0.08498358726501465, 1.2434974908828735, 0.5037859678268433, -0.5754200220108032, -0.5743883848190308, 0.6301839351654053, -1.3861929178237915, -1.2311097383499146, 0.46431979537010193, -0.2126571089029312, -1.0860291719436646, 0.03603186085820198, -0.4569186866283417, 0.6034473180770874, 0.1551547646522522, 0.0111618023365736, 0.06564043462276459, 1.2660114765167236, -0.39690887928009033, -0.6161193251609802, -0.5870193243026733, 0.07714022696018219, -0.5442468523979187, -0.7205557227134705, 0.31300780177116394, -0.21931029856204987, -0.30025532841682434, 0.19236570596694946, -0.8228356838226318, -1.1437543630599976, -0.38351500034332275, -0.5933961272239685, 1.1147923469543457, 0.36413729190826416, -0.4140942096710205, -0.5867606997489929, 0.11027029901742935, -0.545270562171936, 0.7490130662918091, -0.3633907437324524, -1.3575451374053955, -1.0635583400726318, -0.1531926542520523, 0.2808954417705536, 0.30762556195259094, 0.47560006380081177, 0.3951040208339691, 0.6929991841316223, -0.7994192838668823, 0.6257659196853638, 1.587609052658081, 0.6202697157859802, -0.5236940979957581, -0.9570192098617554, -1.3082672357559204, -0.24069400131702423, -0.790289044380188, -0.6366036534309387, -0.4834783375263214, -1.4265351295471191, -0.8161550760269165, -1.232007622718811, 0.3187462389469147, -0.48499760031700134, -0.22211158275604248, -1.6050665378570557, -0.42805197834968567, 0.6012810468673706, 0.0308602936565876, -0.6102452874183655, -0.915554404258728, 0.14899815618991852], [-1.2556699514389038, 0.7433816194534302, -0.5439978241920471, -0.49539798498153687, 0.48746687173843384, 0.43018990755081177, 0.0665622130036354, -0.07223721593618393, -0.5141619443893433, 2.4519975185394287, 2.198801279067993, -1.6331721544265747, -2.312195062637329, -0.930634617805481, -0.03906593844294548, -1.6404024362564087, 0.5364338159561157, -0.16892968118190765, 0.6369587182998657, 0.38485610485076904, -1.8616236448287964, 0.44211146235466003, -1.6153250932693481, -1.1196091175079346, 0.4242522716522217, -0.29253479838371277, -1.5442314147949219, 2.6171457767486572, 1.2539504766464233, 0.5218032002449036, 0.8106349110603333, -0.6008924245834351, -0.6334079504013062, 0.37188783288002014, 0.6639589667320251, -1.2735595703125, -1.292535424232483, 0.3911420702934265, 0.9511409401893616, -2.5676004886627197, -0.03958498314023018, -1.0069125890731812, 1.4130295515060425, -0.061850182712078094, -0.5621683597564697, -0.6449028849601746, 1.2270116806030273, -0.03719930723309517, -2.472139596939087, -1.6892743110656738, 0.701552152633667, -0.9859239459037781, -0.6459128856658936, -0.039279889315366745, 0.8253553509712219, -1.6517900228500366, -0.2195892184972763, -1.0994075536727905, 0.08177891373634338, -0.3971397280693054, 0.470823734998703, 0.6426531672477722, -0.7148863673210144, -1.910379409790039, 1.5969645977020264, 0.05767905339598656, -0.9924324750900269, 0.23423033952713013, 1.2178659439086914, -1.699013352394104, -0.7630584836006165, -0.002268417039886117, -0.5381370186805725, -0.4612674117088318, 0.3330550491809845, -0.3412567377090454, 0.5100879669189453, -0.039255090057849884, 0.6871593594551086, 0.5261154174804688, -0.4268571138381958, 1.081856369972229, 0.6409273147583008, -0.0979275181889534, 1.3828864097595215, 0.8864901065826416, 0.30340567231178284, -1.035477638244629, -0.6314771771430969, -0.5305662155151367, 0.04200415313243866, -1.4926823377609253, -1.6161748170852661, -1.6083037853240967, -0.24569368362426758, -2.36442494392395, -0.7438218593597412, -0.18973946571350098, -0.8527904748916626, 2.1801745891571045, 0.39417538046836853, 0.1281989961862564, -0.8708615899085999, 0.9890830516815186, -1.4031124114990234, 2.243281126022339, -1.438154697418213, -3.3094706535339355, 0.07273190468549728, -1.1123210191726685, -1.202073574066162, 0.0698339194059372, -0.13722792267799377, -2.42339825630188, 0.4626900255680084, 0.3770071864128113, 1.4669244289398193, 1.334357738494873, 0.6220962405204773, 0.0499865859746933, 1.1881107091903687, -1.5988491773605347, -1.5062742233276367, -0.14305396378040314, -1.7480237483978271, 1.209979772567749, -2.080381155014038, 0.10049271583557129], [-0.21828243136405945, -2.0509212017059326, -1.7134579420089722, -0.8883874416351318, -0.7407116889953613, -0.6082298159599304, -0.12606021761894226, 0.04717457666993141, -0.23955242335796356, -1.50468909740448, -0.5995057821273804, 0.5983442068099976, 0.08886093646287918, -1.3840436935424805, -1.928250789642334, 0.7964577078819275, 1.5901713371276855, -0.2911713719367981, -0.05978880822658539, -0.5058297514915466, -1.768424153327942, 0.9234410524368286, -2.206127882003784, -0.4191340506076813, -0.6878857612609863, -0.8220416307449341, 0.13575339317321777, 0.5314434170722961, -1.6221792697906494, -1.2364102602005005, -0.1510365903377533, -0.37578949332237244, -1.9650777578353882, -0.18418700993061066, -1.3384644985198975, -0.8272644877433777, -1.037224292755127, -0.27459052205085754, -0.6250069737434387, -1.565659523010254, -0.21399737894535065, 0.11944151669740677, 0.07291030138731003, 0.027713090181350708, -1.3472073078155518, 0.34017413854599, -0.17161329090595245, 0.7142161130905151, -0.21137230098247528, -1.2931044101715088, 1.5817668437957764, 1.4269226789474487, -0.6558574438095093, -3.075596570968628, -0.7736874222755432, 1.5427193641662598, 0.752474844455719, 0.6358224749565125, 0.18253731727600098, 0.02623567543923855, -0.9989479780197144, -1.2954075336456299, 0.08938208222389221, -0.312683641910553, 2.0840001106262207, -0.5937965512275696, 0.3054681420326233, -0.04782629385590553, 3.89888858795166, 0.16573107242584229, -0.6437312364578247, -0.047195713967084885, 0.42164233326911926, -0.7149506211280823, 0.30106911063194275, -0.12496218830347061, -0.5973950028419495, -0.09748372435569763, -1.0833139419555664, -0.6664633750915527, -1.4603240489959717, -1.744022250175476, -1.402855396270752, -1.9308795928955078, -0.010100068524479866, -0.9621586203575134, -0.2439250499010086, -3.367647886276245, -0.5301010608673096, 1.3502881526947021, -0.036796633154153824, 0.20841141045093536, -0.607185959815979, 0.15530630946159363, 1.069466471672058, -1.2346142530441284, -1.0800892114639282, -0.4932180941104889, -2.9091269969940186, 2.588078498840332, -0.030913205817341805, 0.6905839443206787, -0.25521063804626465, 0.6734826564788818, -0.7752744555473328, 0.2751410901546478, -1.1225672960281372, -1.1583091020584106, -0.457177072763443, -2.7494242191314697, 0.21175731718540192, -0.0044206720776855946, 0.5845189094543457, 0.26384830474853516, -0.13417889177799225, -2.3373677730560303, 0.7577943205833435, 0.7377198934555054, -0.612592875957489, -0.0065117450430989265, 0.6479336619377136, 0.7503846287727356, 0.8349866271018982, 0.11609886586666107, -0.9243780374526978, -1.6683987379074097, 0.1488323211669922, -0.06451165676116943], [0.5151335597038269, -0.4779411852359772, -0.9181824326515198, -0.08174357563257217, 0.7190904021263123, 0.38429832458496094, -1.0589841604232788, -0.0030138164293020964, 0.8344330787658691, -0.794972836971283, -0.7664921283721924, -0.6048538088798523, 0.0064753200858831406, 1.5032341480255127, 0.5951464772224426, -1.515093445777893, -0.9532656669616699, 0.5346881151199341, 0.3068985641002655, -0.941336452960968, -1.7389535903930664, 0.5693252682685852, -1.6738656759262085, -0.51515132188797, 0.3952343463897705, -3.785227060317993, -1.5835636854171753, -0.1670720875263214, -1.3712776899337769, 0.30095621943473816, 0.8512313961982727, 0.7048300504684448, -0.858232319355011, 1.154711365699768, -1.4593480825424194, -0.43034717440605164, -0.4899011254310608, -0.7729353904724121, 1.0712018013000488, -1.015737771987915, 0.7623518109321594, -0.4854589104652405, 0.0984722301363945, 0.0807608962059021, 2.4372451305389404, -0.17276494204998016, 0.7309801578521729, 0.3948456048965454, 0.17397241294384003, 0.8176541924476624, -1.0686341524124146, -0.9559392929077148, 0.25238943099975586, -2.723053455352783, -1.4825133085250854, -0.6999766826629639, -0.2184249609708786, -0.9959848523139954, 0.28264012932777405, 0.20139576494693756, -1.2394952774047852, 0.29216814041137695, 0.1670723855495453, -1.53862726688385, 0.16903427243232727, 0.4230586886405945, -0.22135905921459198, 0.2602347135543823, -4.1026105880737305, -4.794673919677734, -0.48887890577316284, 0.027849173173308372, -0.16741786897182465, 1.0360112190246582, -1.1316258907318115, -0.3795781135559082, -0.06926155835390091, -0.06147518381476402, 0.9129930734634399, 0.23669134080410004, -0.9361032843589783, -0.3724522590637207, 0.39634740352630615, -0.21996253728866577, -0.34630098938941956, -0.2369537204504013, 0.28948909044265747, -1.3759009838104248, -1.0223116874694824, 0.3474719524383545, -0.2667885422706604, -0.5632208585739136, -0.3777531385421753, -0.5006071329116821, 1.2254754304885864, -0.932603120803833, -2.249393939971924, 0.7532097101211548, -1.3677924871444702, 1.638262391090393, 0.4653845429420471, -1.3406829833984375, -0.22270835936069489, 1.5687193870544434, -0.12367672473192215, -1.786653995513916, -1.6646064519882202, 0.19434961676597595, -0.15236219763755798, -0.5782355666160583, -0.48582911491394043, -0.5378334522247314, 1.1196489334106445, 0.08394806832075119, 0.27639108896255493, 0.5718481540679932, 0.35097506642341614, -0.12736329436302185, -0.045947182923555374, -0.14289484918117523, -0.535992443561554, 1.8603010177612305, 0.6609336733818054, 1.604178786277771, -1.3771541118621826, -0.6359533071517944, -2.447542667388916, -0.21076296269893646], [-1.6828275918960571, 0.3364022970199585, 0.03443218395113945, -0.14927737414836884, 1.00974702835083, -0.27949291467666626, 0.07245022058486938, 0.049268122762441635, -2.572605609893799, 1.2775988578796387, -1.134398102760315, 1.5327844619750977, -1.004957675933838, -1.2294448614120483, 0.5896779894828796, 0.6833086609840393, -1.073090672492981, -1.1637678146362305, 0.41431036591529846, 0.11021771281957626, 0.5094239115715027, 0.2986244857311249, -0.8198345303535461, -0.3916844129562378, 0.4653770625591278, 1.4275327920913696, -0.5417867302894592, 2.3479180335998535, -0.39820677042007446, -0.26743292808532715, -0.9195917248725891, -1.6599141359329224, 1.501680612564087, -1.726514458656311, -0.046773605048656464, 1.3211374282836914, -3.634608507156372, 0.7645085453987122, -0.18001298606395721, 0.9696261882781982, 0.329228013753891, -1.937087893486023, 0.745159387588501, 0.05215653404593468, -3.9022319316864014, -0.2518196105957031, 0.5303637385368347, 0.011355581693351269, -2.4449403285980225, 0.20893026888370514, -1.2386181354522705, -1.1299786567687988, -0.4520208537578583, 0.39653104543685913, -0.6392095685005188, -0.4885420799255371, -0.9609503149986267, 1.3345141410827637, 0.03751840814948082, -0.9101517796516418, 1.601678490638733, 0.9602499604225159, -0.698232889175415, -1.0226246118545532, 1.1732947826385498, 0.8459439277648926, -0.6755346655845642, -0.12447798252105713, 1.4097155332565308, -2.9582417011260986, 0.6750444173812866, -0.022968914359807968, -0.6922174692153931, -1.230564832687378, -0.7273288369178772, 0.07457515597343445, -0.0035418258048594, 0.05143127217888832, -1.873841643333435, -0.105608269572258, -1.2189762592315674, 0.8960886597633362, -0.6397868990898132, 0.7070821523666382, 0.988185703754425, 0.04080802574753761, -3.2272233963012695, -1.525428056716919, 1.7487642765045166, -0.3257176876068115, 0.35469746589660645, -0.5112985372543335, -0.5915339589118958, -0.585792601108551, -0.33430641889572144, -0.4036277234554291, 1.5287398099899292, 0.4408872425556183, -0.1367950141429901, 0.3743344247341156, 0.5260400176048279, 0.7710512280464172, 0.5716217756271362, -0.46462032198905945, 0.518403172492981, -0.6424693465232849, -1.6132099628448486, -1.627057433128357, 0.24501682817935944, -1.0107616186141968, -3.4511446952819824, 0.18697214126586914, -0.9494707584381104, 0.19125628471374512, -0.3392733037471771, 0.28333842754364014, 0.9819334745407104, 2.891026258468628, 0.7970326542854309, 0.07360230386257172, 1.1181997060775757, -1.5883293151855469, -1.5817583799362183, -0.2566799521446228, -2.3251991271972656, -2.0785932540893555, -2.164843797683716, -0.08012818545103073], [-0.09262890368700027, 0.009165629744529724, 0.021546319127082825, 0.015044917352497578, -0.037362053990364075, 0.05220380052924156, -0.09589653462171555, 0.040556151419878006, -0.029400499537587166, -0.07845772057771683, -0.11270684748888016, -0.10804103314876556, 0.009904886595904827, -0.03979283571243286, -0.04349049925804138, 0.06330502033233643, -0.05491013824939728, -0.01362078171223402, -0.08378928154706955, 0.005705623421818018, -0.013654896058142185, 0.06337501108646393, -0.014246313832700253, -0.055396027863025665, 0.040058333426713943, -0.023323360830545425, -0.09583340585231781, 0.053108133375644684, -0.060556136071681976, -0.09545581787824631, -0.019252367317676544, -0.04444057121872902, -0.03166179358959198, -0.08574151247739792, -0.08773939311504364, -0.05485532432794571, -0.00797178503125906, 0.03511124476790428, -0.07943688333034515, -0.051989756524562836, -0.09093183279037476, -0.030322568491101265, -0.012617694213986397, -0.060669176280498505, 0.05323883891105652, -0.10122442990541458, 0.06608632206916809, -0.02388470061123371, -0.07388190925121307, -0.05461018159985542, -0.015515145845711231, 0.06134459376335144, -0.12418293952941895, -0.046663787215948105, 0.03385048732161522, -0.04646478593349457, -0.08806266635656357, -0.06775268912315369, -0.023515980690717697, -0.046394843608140945, -0.10589484870433807, -0.023481326177716255, -0.025218019261956215, 0.04811796545982361, 0.09313531965017319, -0.007974962703883648, -0.00789181049913168, -0.12552385032176971, 0.05487273260951042, 0.06988469511270523, 0.03706304728984833, -0.03494703769683838, 0.028870858252048492, -0.1170712485909462, -0.058186933398246765, -0.08782759308815002, -0.1490248292684555, -0.05042341351509094, -0.09142018109560013, 0.012179836630821228, -0.03677970543503761, -0.0025933017022907734, -0.048627860844135284, 0.07674632221460342, -0.0002297461760463193, 0.03592076525092125, 0.009161378256976604, -0.11417078971862793, -0.07970818877220154, -0.006318219937384129, 0.028657926246523857, -0.09514539688825607, -0.022647686302661896, -0.03392226621508598, 0.08734481781721115, 0.06122121214866638, -0.009959585033357143, 0.04440413415431976, -0.0508914589881897, 0.0721331238746643, -0.015957986935973167, -0.029956502839922905, -0.04665490984916687, -0.07183180004358292, -0.0395452082157135, 0.00852138176560402, -0.03724861890077591, -0.09144129604101181, -0.015314855612814426, -0.04394082725048065, -0.10976283997297287, 0.03541378304362297, -0.08288167417049408, 0.027256067842245102, -0.09263630211353302, -0.11656270921230316, -0.05358094722032547, 0.0462668314576149, 0.02395038865506649, -0.023538030683994293, 0.026223327964544296, -0.08957286924123764, -0.02921421453356743, 0.019981062039732933, -0.11882688850164413, -0.11931162327528, -0.013988149352371693, -0.01129323709756136], [-0.14396753907203674, -0.8058496117591858, 1.2409684658050537, -0.41149407625198364, 1.104002594947815, -0.14739935100078583, -1.986722707748413, -0.0722869336605072, -2.8571133613586426, 0.39848625659942627, -2.4296939373016357, -3.647740364074707, -3.4915714263916016, 0.2258969247341156, -3.2969069480895996, 1.062997579574585, -0.10966247320175171, 0.02676713466644287, 0.5269764065742493, -0.4013585150241852, -2.309513807296753, -1.1478997468948364, -1.0179773569107056, 1.3507781028747559, -0.5724408030509949, -0.33258214592933655, 0.16165867447853088, 0.11950280517339706, -0.6535187363624573, 1.8153457641601562, -2.808689832687378, -0.3830678462982178, 1.6245626211166382, -0.1660318225622177, 0.6857006549835205, -0.9049617052078247, 0.10001679509878159, -1.0964596271514893, -1.7498856782913208, 0.836136519908905, -0.2014593482017517, -3.7366254329681396, 0.39390358328819275, 0.003044719807803631, -0.9071040749549866, 0.3494795262813568, -0.8309736847877502, 0.611971914768219, -0.21243280172348022, -0.24075981974601746, 0.24485719203948975, -0.14187943935394287, -0.5322295427322388, 0.6992788910865784, 0.11908834427595139, 0.653710663318634, 0.06566940248012543, 0.25056391954421997, 0.7105433344841003, -1.6433181762695312, 0.880079448223114, -0.34177786111831665, -1.7361923456192017, -0.26157474517822266, -0.8943595886230469, -0.9364332556724548, -0.9039880633354187, 1.095955729484558, -4.5391740798950195, 1.052872657775879, 0.9371510148048401, -0.06957442313432693, -0.24541334807872772, 0.2492363601922989, -0.9077913761138916, 0.25714433193206787, -1.1139624118804932, -0.004802833776921034, 0.2663828730583191, -0.4626224935054779, -1.1409761905670166, 0.11808247864246368, -0.14785730838775635, -0.9774435758590698, 0.0072183990851044655, -1.1289764642715454, 0.7067397832870483, -0.6081161499023438, 0.5729308128356934, -0.3805598318576813, -0.21682186424732208, -0.45821571350097656, 1.8255276679992676, 0.5914621949195862, -0.44338279962539673, -0.2767598628997803, 0.29281607270240784, 0.0677780732512474, 1.8401894569396973, -0.8699138760566711, 1.5230311155319214, -0.4606907367706299, -1.168476939201355, -1.097671389579773, 0.4797731935977936, -1.6235829591751099, -0.20007145404815674, 0.19282910227775574, -1.2953453063964844, -6.04868221282959, -0.48145046830177307, 0.5802100896835327, 1.4230444431304932, 0.027951186522841454, -1.7410118579864502, -0.642530620098114, -3.561657190322876, 0.9092651605606079, 0.2052399069070816, 0.05573233962059021, -0.4110299348831177, -0.9306418895721436, 0.3490307331085205, 0.7592892050743103, -0.8300350904464722, -0.35303741693496704, -0.8175645470619202, 0.08854545652866364], [-0.0009404858574271202, 0.041007187217473984, -0.01750732772052288, -0.0641164630651474, 0.008873623795807362, 0.05213996022939682, -0.04602950066328049, -0.057338111102581024, -0.060186658054590225, -0.043005820363759995, -0.011143648065626621, 0.006608836352825165, -0.0006234151078388095, -0.023377761244773865, 0.05485012009739876, 0.004671093076467514, -0.051322922110557556, -0.054871171712875366, -0.08194097876548767, -0.06075169891119003, -0.08337713778018951, 0.01544412225484848, -0.09996646642684937, 0.034185562282800674, 0.0605495311319828, -0.06575453281402588, -0.07825000584125519, -0.06983886659145355, 0.023588253185153008, -0.012894579209387302, -0.04562143236398697, 0.05339370295405388, 0.0051342155784368515, -0.07986227422952652, -0.004807880613952875, -0.03805023804306984, -0.015325668267905712, 0.018005624413490295, -0.00950707495212555, -0.061386916786432266, 0.030455058440566063, -0.08079098910093307, -0.030355477705597878, 0.03405722230672836, 0.0781254917383194, 0.054215677082538605, -0.020764213055372238, -0.0020987067837268114, -0.10913208872079849, -0.048588890582323074, -0.05129269137978554, 0.025091135874390602, -0.05791226774454117, 0.01909606158733368, 0.014057036489248276, 0.06888522207736969, -0.04649631679058075, 0.04919733852148056, -0.11451174318790436, -0.025046976283192635, 0.008075426332652569, 0.022665109485387802, 0.009976803325116634, -0.09020927548408508, 0.05442357063293457, -0.08295463770627975, -0.0606059655547142, -0.006011130753904581, -0.08586989343166351, -0.08401567488908768, -0.10974904149770737, 0.07106324285268784, -0.01198898907750845, -0.028202183544635773, -0.034099798649549484, -0.10873010009527206, -0.0834784284234047, -0.061640188097953796, -0.08551028370857239, 0.05815180763602257, -0.06126988306641579, -0.05347657948732376, -0.07611523568630219, -0.016918260604143143, -0.013261273503303528, -0.060173697769641876, 0.025253860279917717, 0.07450339198112488, -0.06300139427185059, 0.050079096108675, -0.04605281352996826, -0.03243005648255348, 0.006393775809556246, -0.04767977446317673, 0.07509857416152954, 0.023168984800577164, -0.057375695556402206, -0.08529612421989441, -0.08757517486810684, 0.028298942372202873, -0.06648454815149307, -0.07408525794744492, -0.05665402486920357, -0.08738706260919571, -0.10357890278100967, 0.07883930206298828, 0.049372438341379166, 0.047234341502189636, -0.042875513434410095, -0.03625261038541794, -0.031012630090117455, 0.0017262717010453343, -0.09458494186401367, -0.01855485327541828, -0.05664798617362976, -0.016911985352635384, 0.08096350729465485, -0.01649511232972145, 0.03558856248855591, -0.0629509836435318, -0.01247369684278965, -0.07778887450695038, -0.009806412272155285, -0.0351606085896492, -0.07916449010372162, -0.08537789434194565, -0.0638544037938118, 0.011836825869977474], [-0.40527379512786865, -3.6359424591064453, 1.7985855340957642, -1.4048916101455688, 0.15747274458408356, 1.3606023788452148, -0.1448414921760559, -0.07711593806743622, -2.8961503505706787, 0.8507426977157593, -1.9331660270690918, -0.6726069450378418, -0.5208907723426819, 0.46769991517066956, 0.16050660610198975, -0.0715320035815239, -0.1343289613723755, -1.1801737546920776, 0.6492483019828796, -1.6591880321502686, 0.9146053194999695, 0.14152531325817108, -0.23345841467380524, -1.032522439956665, 0.3544744551181793, -0.9742171764373779, -0.37242159247398376, 0.8721882104873657, -0.5936067700386047, -0.8579952716827393, 0.010640193708240986, -1.131716251373291, 1.586349368095398, -1.0983494520187378, -0.21797576546669006, 1.2103662490844727, -0.7436766028404236, 1.227737545967102, -1.6079531908035278, -0.24929766356945038, 0.02916555106639862, -1.5886132717132568, 0.03209470957517624, -0.04440303146839142, 0.19921962916851044, -0.5343442559242249, -0.1791916936635971, -0.7430351376533508, 0.31148597598075867, -1.825798511505127, 0.8333833813667297, 0.11992321163415909, -0.07287325710058212, 0.33211418986320496, 0.1646798551082611, -1.267959475517273, -0.021494712680578232, 0.617022693157196, -1.1108081340789795, -1.775136947631836, 0.9999605417251587, 1.8898316621780396, -0.4761960506439209, -1.2276362180709839, -0.12559020519256592, -1.029368281364441, -1.364288330078125, -0.9287204146385193, -0.27206936478614807, -0.5940508842468262, -0.7301585674285889, -0.07748720794916153, 0.34743714332580566, -0.01981404237449169, 0.12953591346740723, 0.3605811893939972, -2.54896879196167, -0.031020592898130417, -0.14648208022117615, -3.354477882385254, -0.921410858631134, 0.6102747917175293, -1.2216784954071045, -0.07731050252914429, -0.1646498292684555, -1.3225890398025513, 0.612397313117981, -0.5735669136047363, 0.08013695478439331, 1.8032891750335693, 0.191328227519989, -1.7837677001953125, -0.3048907220363617, -0.10231263190507889, -1.520949363708496, -0.2559927701950073, -1.5761035680770874, -0.5254403948783875, -1.1216086149215698, -0.8094760775566101, 0.5911998748779297, 0.3572670519351959, -0.8863289952278137, -1.1423659324645996, 1.0803449153900146, 1.2787786722183228, 0.3627232015132904, 0.03707214072346687, -0.6001369953155518, -5.15213680267334, 0.10632529109716415, 0.2790873944759369, -0.45799970626831055, 0.7815728187561035, 0.17652001976966858, 0.7653242945671082, 0.4130888283252716, -0.9884819984436035, 0.0868540108203888, 0.19418427348136902, 0.009094201028347015, -0.4111364185810089, -1.0852028131484985, -2.192298173904419, -0.46104204654693604, 0.058190301060676575, -0.8321128487586975, -0.07587156444787979], [-0.1627616137266159, -0.8441100120544434, 0.22789813578128815, 0.09186776727437973, 0.002772898180410266, -0.35509592294692993, 0.15986250340938568, 0.003839532844722271, 0.1181749552488327, 0.5400330424308777, -0.7139787077903748, -0.4551391005516052, 0.9678903818130493, -0.4748173952102661, 0.2657124996185303, 0.46312788128852844, 0.47506868839263916, -1.2460788488388062, 0.054602932184934616, -0.09313762187957764, -0.2642819285392761, -0.16688033938407898, -0.5354976654052734, -0.3454522490501404, 0.6275007128715515, -0.14955420792102814, -0.1899559497833252, 0.9791693687438965, 0.1730121523141861, -0.2663476765155792, -1.2169848680496216, -0.05425873398780823, 0.5055952668190002, 0.17536596953868866, 0.4500257074832916, 0.22024892270565033, 0.7101061344146729, 0.13765157759189606, -0.4653674364089966, -0.04451766610145569, -0.293555349111557, 0.15305936336517334, -0.4299180209636688, -0.04729117453098297, -0.19211813807487488, -0.3050421476364136, 0.7883042097091675, -0.0748249739408493, 0.04819200932979584, 0.25760990381240845, -0.401073157787323, 0.4895678162574768, 0.10533776879310608, 0.06970023363828659, -0.0963749811053276, 0.18020999431610107, 0.08359017223119736, 0.027572477236390114, -0.06525137275457382, 0.07259765267372131, -0.026879575103521347, -0.02133898250758648, -0.12615787982940674, 0.053104616701602936, 0.31243056058883667, -0.3243134915828705, -1.7220271825790405, -0.16926707327365875, -0.15431973338127136, 0.5323359370231628, -0.1197701096534729, 0.03419128432869911, 0.7119674682617188, 0.07936475425958633, -0.4201712906360626, -0.10198158025741577, -1.3720300197601318, -0.03302788734436035, 0.112834133207798, -0.2895296812057495, -0.8459619283676147, -0.2855200171470642, -0.08767425268888474, -0.04273983836174011, -0.0644741803407669, -0.7542683482170105, 0.226770281791687, -1.4714245796203613, 0.04246625676751137, 0.420083224773407, -0.2175915688276291, -0.3212381899356842, 0.1492631584405899, -0.1755562126636505, 0.08347571641206741, 0.23818588256835938, 0.19336283206939697, 0.17023733258247375, 0.3757229447364807, 0.5992105007171631, -0.38536086678504944, -0.0483684279024601, -0.5760678648948669, 0.522480309009552, -0.9624795317649841, -1.0575933456420898, -0.027923595160245895, 0.48108038306236267, -0.11009345203638077, -1.1348837614059448, -0.17665764689445496, 0.018983451649546623, 0.1679055094718933, -0.17335312068462372, -0.6595451831817627, 0.1530875861644745, 0.3533787131309509, -0.03642978519201279, -0.16623039543628693, -0.27530181407928467, 0.08350500464439392, 0.3961889147758484, -0.05455116555094719, 0.12624888122081757, -0.06950291246175766, 0.1683865189552307, -0.5862487554550171, -0.3606634736061096], [0.04378208890557289, -0.0302167609333992, 0.013182082213461399, -0.0965617373585701, 0.04329976439476013, -0.130620077252388, -0.024023745208978653, -0.06384604424238205, -0.05927997827529907, -0.09664914757013321, -0.0799647718667984, -0.034430719912052155, -0.06683138012886047, 0.007048347033560276, -0.013119767419993877, 0.051028165966272354, -0.04020432382822037, 